{"sizes":[19,9,1],"layers":[{"0":{},"1":{},"2":{},"3":{},"4":{},"5":{},"6":{},"7":{},"8":{},"9":{},"10":{},"11":{},"12":{},"13":{},"14":{},"15":{},"16":{},"17":{},"18":{}},{"0":{"bias":-0.12474222481250763,"weights":{"0":0.19939474761486053,"1":0.11241862177848816,"2":0.07848712056875229,"3":-0.0029651338700205088,"4":0.1765487641096115,"5":-0.12999871373176575,"6":-0.11890802532434464,"7":0.0673348680138588,"8":0.1797250509262085,"9":0.17277660965919495,"10":0.04907827824354172,"11":0.06349547952413559,"12":0.024736233055591583,"13":-0.1153135895729065,"14":-0.1273014396429062,"15":0.018498726189136505,"16":0.09803526848554611,"17":-0.003981436602771282,"18":0.08687162399291992}},"1":{"bias":0.06269630789756775,"weights":{"0":-0.006292091682553291,"1":0.10183944553136826,"2":0.029344430193305016,"3":-0.10407893359661102,"4":0.1369466930627823,"5":0.12941473722457886,"6":-0.009164834395051003,"7":0.16372817754745483,"8":-0.03235955163836479,"9":0.06388126313686371,"10":0.09981358051300049,"11":-0.1900026947259903,"12":-0.09749660640954971,"13":0.0035825869999825954,"14":-0.09242381900548935,"15":-0.12551920115947723,"16":0.14788539707660675,"17":-0.0975477397441864,"18":-0.05000753328204155}},"2":{"bias":0.0819859579205513,"weights":{"0":0.15432950854301453,"1":0.19984352588653564,"2":-0.197008416056633,"3":-0.19921259582042694,"4":0.19263315200805664,"5":0.14262636005878448,"6":-0.06068635359406471,"7":0.06914079189300537,"8":-0.0985167995095253,"9":0.1670794039964676,"10":0.16262279450893402,"11":-0.061840176582336426,"12":-0.1696607768535614,"13":-0.16038209199905396,"14":-0.10221897065639496,"15":0.08714873343706131,"16":0.041993945837020874,"17":0.018073661252856255,"18":0.14211006462574005}},"3":{"bias":0.10450585931539536,"weights":{"0":0.1308092325925827,"1":0.018347671255469322,"2":0.08866076171398163,"3":0.11658329516649246,"4":0.034815430641174316,"5":-0.0151298176497221,"6":-0.10232974588871002,"7":0.1727396696805954,"8":0.1613530069589615,"9":0.18089847266674042,"10":-0.04780165106058121,"11":-0.11149493604898453,"12":0.04155684635043144,"13":-0.061580028384923935,"14":-0.1396297812461853,"15":-0.023569434881210327,"16":-0.19545705616474152,"17":0.18361404538154602,"18":-0.12741197645664215}},"4":{"bias":-0.08779691159725189,"weights":{"0":-0.011108983308076859,"1":-0.1857195794582367,"2":0.08433099091053009,"3":0.19707563519477844,"4":-0.08084411919116974,"5":-0.09927406907081604,"6":0.029102129861712456,"7":-0.14885373413562775,"8":-0.18455040454864502,"9":-0.0162078607827425,"10":-0.05405164137482643,"11":0.06065114960074425,"12":0.19689133763313293,"13":-0.0867740586400032,"14":-0.1477070301771164,"15":-0.12838825583457947,"16":0.17797468602657318,"17":-0.044836707413196564,"18":0.03810795024037361}},"5":{"bias":0.1723950207233429,"weights":{"0":0.1622750610113144,"1":0.07143166661262512,"2":-0.17291328310966492,"3":-0.0416160523891449,"4":0.03925589472055435,"5":-0.04762197285890579,"6":0.07030358910560608,"7":-0.1123846173286438,"8":-0.1682061403989792,"9":-0.19684945046901703,"10":-0.080980084836483,"11":0.138999804854393,"12":-0.12498442828655243,"13":-0.12188918143510818,"14":-0.037672992795705795,"15":-0.14659127593040466,"16":-0.12317506968975067,"17":-0.04490240663290024,"18":0.13590224087238312}},"6":{"bias":-0.12698271870613098,"weights":{"0":-0.1836041957139969,"1":0.10947392135858536,"2":0.1635185182094574,"3":-0.09979362040758133,"4":0.09660320729017258,"5":-0.1590454876422882,"6":0.08919613063335419,"7":0.11730542033910751,"8":-0.006390088237822056,"9":-0.14455130696296692,"10":-0.07029172778129578,"11":0.17509740591049194,"12":-0.012445347383618355,"13":-0.12456629425287247,"14":0.0650138333439827,"15":0.03544316813349724,"16":-0.17857345938682556,"17":0.007812545634806156,"18":-0.06031055003404617}},"7":{"bias":0.1793605238199234,"weights":{"0":0.10587158054113388,"1":0.18102681636810303,"2":-0.0716620460152626,"3":0.1881164312362671,"4":0.12696895003318787,"5":0.03799816593527794,"6":0.19399596750736237,"7":0.08263319730758667,"8":-0.07685697078704834,"9":0.02919907495379448,"10":0.18265457451343536,"11":0.15418307483196259,"12":-0.04972807690501213,"13":-0.1308750957250595,"14":0.07983379811048508,"15":-0.07676645368337631,"16":0.08382349461317062,"17":0.19893519580364227,"18":0.11315862834453583}},"8":{"bias":0.15495069324970245,"weights":{"0":-0.015375104732811451,"1":-0.024931227788329124,"2":0.10406424105167389,"3":0.17761661112308502,"4":0.12106235325336456,"5":0.04192642122507095,"6":0.0827760174870491,"7":-0.06551150232553482,"8":0.019958777353167534,"9":-0.15114854276180267,"10":-0.08826526254415512,"11":-0.0917571559548378,"12":0.06075112521648407,"13":-0.1505810171365738,"14":0.025921151041984558,"15":0.156549334526062,"16":0.07721158862113953,"17":0.04302258789539337,"18":-0.16302846372127533}}},{"computer":{"bias":0.30186983942985535,"weights":{"0":0.6600098609924316,"1":0.1392916589975357,"2":0.4131726324558258,"3":0.6476097106933594,"4":0.08245791494846344,"5":0.11515694111585617,"6":0.0340564027428627,"7":0.41585618257522583,"8":0.1954125165939331}}}],"outputLookup":true,"inputLookup":false,"activation":"sigmoid","trainOpts":{"iterations":20000,"errorThresh":0.005,"log":true,"logPeriod":10,"learningRate":0.3,"momentum":0.1,"callbackPeriod":10}}