{"type":"LSTM","options":{"inputSize":26,"inputRange":26,"hiddenSizes":[20,20],"outputSize":26,"learningRate":0.01,"decayRate":0.999,"smoothEps":1e-8,"regc":0.000001,"clipval":5,"json":null,"dataFormatter":{"indexTable":{"a":0,"b":1,"o":2,"u":3,"t":4,"f":5,"i":6,"n":7,"d":8," ":9,"e":10,"x":11,"p":12,"r":13,"s":14,"_":15,"g":16,"h":17,"l":18,"w":19,"m":20,"y":21,"c":22,"stop-input":23,"start-output":24,"unrecognized":25},"characterTable":{"0":"a","1":"b","2":"o","3":"u","4":"t","5":"f","6":"i","7":"n","8":"d","9":" ","10":"e","11":"x","12":"p","13":"r","14":"s","15":"_","16":"g","17":"h","18":"l","19":"w","20":"m","21":"y","22":"c","23":"","24":"","25":""},"values":["about","find experts","find_expert","get expert","i need help","show expert","show me an expert","tell me about expert bot","tell me about you","what are your capabilities","what you can"],"characters":["a","b","o","u","t","f","i","n","d"," ","e","x","p","r","s","_","g","h","l","w","m","y","c","stop-input","start-output","unrecognized"]}},"input":{"rows":27,"columns":26,"weights":{"0":-0.09835607558488846,"1":-0.025014935061335564,"2":-0.3646470308303833,"3":-0.0275709331035614,"4":0.7864660024642944,"5":-0.07193731516599655,"6":-0.03179318830370903,"7":0.3489898145198822,"8":-0.4749357998371124,"9":-0.7542622089385986,"10":-0.6867934465408325,"11":0.28988227248191833,"12":-1.9239286184310913,"13":0.5202182531356812,"14":-0.4032524526119232,"15":0.5169077515602112,"16":0.2614883780479431,"17":-0.09351344406604767,"18":-0.8008895516395569,"19":-0.11349406838417053,"20":-0.14132298529148102,"21":-2.3276445865631104,"22":0.7463943362236023,"23":-0.03769032657146454,"24":-0.6824555993080139,"25":0.18384230136871338,"26":0.8450952172279358,"27":0.2718369662761688,"28":-1.9535540342330933,"29":0.12436423450708389,"30":-1.6721878051757812,"31":-0.9233003854751587,"32":-0.8914239406585693,"33":-1.5899549722671509,"34":-0.8847282528877258,"35":-0.09329214692115784,"36":1.344667673110962,"37":-1.342228651046753,"38":2.2905027866363525,"39":1.0915135145187378,"40":1.7004722356796265,"41":-0.12028870731592178,"42":-0.27300894260406494,"43":1.9678972959518433,"44":-0.04235674813389778,"45":1.0827209949493408,"46":1.7429496049880981,"47":1.1584714651107788,"48":-0.08322259783744812,"49":-0.29504087567329407,"50":0.0058777411468327045,"51":-1.4815484285354614,"52":1.043937087059021,"53":3.4145314693450928,"54":-0.6249449253082275,"55":-0.9236169457435608,"56":-2.071789503097534,"57":-0.7631304860115051,"58":-0.5309163331985474,"59":-1.5181314945220947,"60":-0.2824430763721466,"61":0.6196637749671936,"62":2.1098153591156006,"63":-0.7605207562446594,"64":1.0519574880599976,"65":-1.9804855585098267,"66":-0.888744056224823,"67":2.607255697250366,"68":-0.19938769936561584,"69":0.18004949390888214,"70":2.0238945484161377,"71":-0.8091615438461304,"72":0.8004772067070007,"73":-0.8935376405715942,"74":-0.7148884534835815,"75":0.6107576489448547,"76":2.156925678253174,"77":-0.32176122069358826,"78":1.80361807346344,"79":1.6345585584640503,"80":-2.0536274909973145,"81":-2.352522611618042,"82":-2.421816349029541,"83":-0.6442177891731262,"84":-0.7017155885696411,"85":0.0616161935031414,"86":-0.644338071346283,"87":0.5472005009651184,"88":0.8475315570831299,"89":-0.7063449025154114,"90":0.8174890875816345,"91":0.5131507515907288,"92":-0.07353579998016357,"93":-1.471642255783081,"94":-0.5298462510108948,"95":1.9889421463012695,"96":-1.4623245000839233,"97":0.023810839280486107,"98":2.974053382873535,"99":1.2125264406204224,"100":0.2019987255334854,"101":-2.398623466491699,"102":-0.9190473556518555,"103":-0.6106871962547302,"104":-0.484208881855011,"105":1.2497336864471436,"106":-0.8504052758216858,"107":1.0527375936508179,"108":-3.1707112789154053,"109":-0.95164555311203,"110":-1.319218397140503,"111":-1.7659603357315063,"112":-0.47772452235221863,"113":-3.547543525695801,"114":3.7010486125946045,"115":4.500359535217285,"116":-0.909402072429657,"117":-3.1011815071105957,"118":-0.0755295604467392,"119":-0.37077826261520386,"120":3.9298455715179443,"121":0.9070261716842651,"122":-4.499726295471191,"123":-1.7621439695358276,"124":0.6777381300926208,"125":-2.1928789615631104,"126":1.6437758207321167,"127":-3.0355918407440186,"128":3.084855079650879,"129":-4.365273952484131,"130":-0.10019485652446747,"131":-0.3831230700016022,"132":-0.11127537488937378,"133":0.41104549169540405,"134":0.9337208867073059,"135":-0.061393048614263535,"136":0.6954569816589355,"137":0.0465085506439209,"138":-1.35689377784729,"139":-0.31721803545951843,"140":-0.9485912322998047,"141":0.27551665902137756,"142":0.5119341015815735,"143":0.34135058522224426,"144":-0.9599176049232483,"145":-0.5643571019172668,"146":-0.3458990454673767,"147":-1.0040779113769531,"148":0.9048487544059753,"149":0.10756909847259521,"150":-0.47921693325042725,"151":-0.27722710371017456,"152":0.19187749922275543,"153":-0.059703171253204346,"154":-0.9889866709709167,"155":0.13849394023418427,"156":-0.18279726803302765,"157":4.449957847595215,"158":-0.5154863595962524,"159":-2.7011382579803467,"160":-3.4848649501800537,"161":-0.03684263303875923,"162":-1.1776806116104126,"163":-0.9022874236106873,"164":-0.6827343106269836,"165":0.8028711080551147,"166":2.754348039627075,"167":-0.6692259907722473,"168":1.0991102457046509,"169":-2.3188929557800293,"170":-5.652462959289551,"171":2.637680768966675,"172":-1.3573157787322998,"173":0.7252998352050781,"174":0.3289652168750763,"175":-3.170281410217285,"176":1.0128726959228516,"177":0.44488662481307983,"178":-2.523744583129883,"179":4.113260269165039,"180":2.043663740158081,"181":-1.0240612030029297,"182":-3.1018123626708984,"183":0.7520133256912231,"184":1.5403560400009155,"185":-3.7351841926574707,"186":0.3177888095378876,"187":4.091176509857178,"188":3.0774831771850586,"189":2.0348575115203857,"190":0.5278609991073608,"191":-0.17270122468471527,"192":-0.08246826380491257,"193":0.6748402118682861,"194":-2.9480936527252197,"195":-0.005868361797183752,"196":-3.406708002090454,"197":-0.6599562168121338,"198":-2.1535403728485107,"199":-1.6803078651428223,"200":0.4996069073677063,"201":-1.4885900020599365,"202":-1.9338308572769165,"203":-0.7987063527107239,"204":-3.6055123805999756,"205":-0.35509514808654785,"206":0.18993374705314636,"207":0.9313302636146545,"208":-1.0203425884246826,"209":0.859226405620575,"210":1.0091153383255005,"211":-2.489269971847534,"212":-1.8833154439926147,"213":-0.712700605392456,"214":-0.21779201924800873,"215":-0.9060688018798828,"216":0.7723077535629272,"217":0.541907787322998,"218":1.6604652404785156,"219":-0.33883118629455566,"220":2.0883569717407227,"221":-2.8258628845214844,"222":0.9336378574371338,"223":2.901930570602417,"224":0.17900876700878143,"225":0.4100894331932068,"226":4.664628982543945,"227":-2.193079710006714,"228":0.34260252118110657,"229":1.2634001970291138,"230":-3.1006786823272705,"231":-0.2088789939880371,"232":4.5811448097229,"233":-0.06313943862915039,"234":2.4882986545562744,"235":0.6734782457351685,"236":-1.7185533046722412,"237":-3.210232734680176,"238":-2.50510311126709,"239":-2.634186267852783,"240":-3.514826774597168,"241":-2.58524751663208,"242":-3.123842716217041,"243":1.5415161848068237,"244":1.8343008756637573,"245":3.4715576171875,"246":4.8648905754089355,"247":-1.9557673931121826,"248":-0.6965363621711731,"249":0.9712312817573547,"250":3.5094268321990967,"251":2.37001895904541,"252":2.4861905574798584,"253":-2.1257855892181396,"254":3.3090708255767822,"255":-1.9481630325317383,"256":-2.305793046951294,"257":-1.2026410102844238,"258":1.1064724922180176,"259":-3.0445053577423096,"260":-1.5963096618652344,"261":1.3853172063827515,"262":-0.4389384686946869,"263":-1.0052069425582886,"264":-0.5439198017120361,"265":-0.8011723756790161,"266":0.03538801893591881,"267":-0.8339859843254089,"268":-0.9235212802886963,"269":0.22485533356666565,"270":1.1997640132904053,"271":-0.34761112928390503,"272":1.4562426805496216,"273":-1.1541626453399658,"274":-1.4159258604049683,"275":2.295766592025757,"276":0.040882643312215805,"277":0.2536586821079254,"278":1.3241698741912842,"279":-1.2014776468276978,"280":0.8279901146888733,"281":-0.9650242924690247,"282":-0.22570191323757172,"283":1.7510712146759033,"284":2.2252893447875977,"285":-0.2674002945423126,"286":-0.46887654066085815,"287":0.9617476463317871,"288":-0.8365993499755859,"289":-0.6530274152755737,"290":-1.9382573366165161,"291":-1.6376577615737915,"292":-2.8460710048675537,"293":-1.910623550415039,"294":1.3092350959777832,"295":-1.1978611946105957,"296":2.114494800567627,"297":0.38696837425231934,"298":-0.5229964256286621,"299":-0.7092878818511963,"300":-0.9734530448913574,"301":0.478695809841156,"302":0.6059388518333435,"303":2.4578683376312256,"304":-1.0129666328430176,"305":-0.7216858863830566,"306":1.3601051568984985,"307":-1.3921287059783936,"308":0.04526488482952118,"309":-1.4126416444778442,"310":0.8586953282356262,"311":-1.5865827798843384,"312":-1.2817819118499756,"313":-1.5496035814285278,"314":-1.4381201267242432,"315":-0.04358147084712982,"316":4.649942398071289,"317":-0.9790604114532471,"318":1.7784717082977295,"319":1.3421897888183594,"320":-0.10932525992393494,"321":0.39555513858795166,"322":-5.117563724517822,"323":-0.23141489923000336,"324":-1.8124829530715942,"325":-0.10399733483791351,"326":0.692905843257904,"327":3.3723676204681396,"328":-0.9782242178916931,"329":-2.6359643936157227,"330":0.10741481184959412,"331":0.4107692837715149,"332":-2.2510321140289307,"333":2.237663745880127,"334":-2.364420175552368,"335":5.898196220397949,"336":1.4084640741348267,"337":-2.139263391494751,"338":0.9790061712265015,"339":-3.6743578910827637,"340":1.2045800685882568,"341":2.9757041931152344,"342":1.6342424154281616,"343":-1.9440996646881104,"344":-1.983591079711914,"345":0.09839615225791931,"346":5.353813171386719,"347":-4.202531337738037,"348":-1.5134317874908447,"349":3.6689181327819824,"350":-1.895665168762207,"351":0.47095903754234314,"352":-0.13927848637104034,"353":-0.5155181884765625,"354":2.839935302734375,"355":0.383146733045578,"356":-3.271378755569458,"357":1.8972152471542358,"358":-1.3174644708633423,"359":-2.487776041030884,"360":2.073810338973999,"361":-3.5484073162078857,"362":0.5183822512626648,"363":0.40276503562927246,"364":1.5581625699996948,"365":-0.785001277923584,"366":-0.3352299630641937,"367":0.2050211876630783,"368":0.028610125184059143,"369":-1.4759470224380493,"370":-1.3995484113693237,"371":-0.9440866112709045,"372":-0.3407580852508545,"373":-1.5916717052459717,"374":-0.22021296620368958,"375":-0.06342270225286484,"376":0.08679188042879105,"377":-0.800853431224823,"378":0.8058851957321167,"379":0.13241474330425262,"380":0.05818971246480942,"381":0.18672910332679749,"382":0.5334241986274719,"383":-0.9757766127586365,"384":0.1625927984714508,"385":-0.3686165511608124,"386":-1.0480958223342896,"387":-0.9982427954673767,"388":-0.04024321213364601,"389":-1.17514967918396,"390":1.7416595220565796,"391":-0.7585287690162659,"392":-0.589897871017456,"393":1.0635418891906738,"394":-0.32703453302383423,"395":-0.8875325322151184,"396":-0.2494003027677536,"397":0.136357843875885,"398":-1.5027352571487427,"399":-1.2783753871917725,"400":-0.0644822046160698,"401":4.580061912536621,"402":-0.5798375606536865,"403":1.0797474384307861,"404":3.088134288787842,"405":-1.8262412548065186,"406":3.067215919494629,"407":1.3237026929855347,"408":-0.09854094684123993,"409":0.9423720240592957,"410":1.3633219003677368,"411":-0.7350190281867981,"412":0.5294095277786255,"413":-2.4338159561157227,"414":-1.6443058252334595,"415":-0.5513818264007568,"416":-1.17251718044281,"417":2.5892386436462402,"418":-6.372119426727295,"419":-0.42604929208755493,"420":-0.6919271349906921,"421":-1.4980578422546387,"422":-1.2192403078079224,"423":-1.5313847064971924,"424":-1.0527915954589844,"425":-3.4996962547302246,"426":1.4602246284484863,"427":0.6523722410202026,"428":-0.6943802237510681,"429":0.8839582800865173,"430":-0.6956492066383362,"431":1.5029782056808472,"432":1.9139533042907715,"433":2.214264154434204,"434":-1.8489937782287598,"435":-0.29419267177581787,"436":2.267472982406616,"437":-3.539661407470703,"438":0.127757728099823,"439":-2.7237253189086914,"440":0.5753267407417297,"441":-5.868126392364502,"442":0.18649637699127197,"443":-4.651825904846191,"444":6.038873195648193,"445":5.862158298492432,"446":0.05649084597826004,"447":1.297136664390564,"448":7.162123680114746,"449":3.342970371246338,"450":2.2915563583374023,"451":8.397117614746094,"452":-1.2376174926757812,"453":-4.692297458648682,"454":3.173030376434326,"455":5.240131378173828,"456":0.7251471877098083,"457":-0.23007799685001373,"458":-2.8075809478759766,"459":-2.49338698387146,"460":1.0518321990966797,"461":3.875725030899048,"462":-1.8675013780593872,"463":8.250748634338379,"464":3.1575498580932617,"465":2.4430272579193115,"466":-4.359490394592285,"467":8.919343948364258,"468":-0.0972379669547081,"469":-0.12171625345945358,"470":0.8513171076774597,"471":-1.3661097288131714,"472":-1.1667022705078125,"473":1.0147130489349365,"474":0.057957712560892105,"475":0.3507808744907379,"476":-0.3178359866142273,"477":-1.645432949066162,"478":0.7892624735832214,"479":1.7058990001678467,"480":1.764958381652832,"481":-0.8864423036575317,"482":-0.23488973081111908,"483":-0.11623149365186691,"484":0.5381349325180054,"485":-0.46641090512275696,"486":0.8758047819137573,"487":-0.7774072885513306,"488":-0.6230315566062927,"489":-0.49342572689056396,"490":-0.9851760268211365,"491":0.1987280249595642,"492":0.26303696632385254,"493":0.5383629202842712,"494":-2.155216693878174,"495":-1.777827262878418,"496":-1.610059142112732,"497":2.8681259155273438,"498":2.642115831375122,"499":-1.1776399612426758,"500":0.5880062580108643,"501":-0.35190969705581665,"502":-0.9464442729949951,"503":2.0086402893066406,"504":-2.147181987762451,"505":-3.5195844173431396,"506":1.1990309953689575,"507":0.22359594702720642,"508":-4.074533462524414,"509":1.1702632904052734,"510":-3.124805450439453,"511":-2.2982163429260254,"512":1.7375737428665161,"513":1.9386171102523804,"514":-0.6319005489349365,"515":4.096536159515381,"516":0.7753870487213135,"517":3.578695774078369,"518":0.7474738955497742,"519":-1.0448333024978638,"520":1.9369864463806152,"521":-3.3549604415893555,"522":-0.892520546913147,"523":2.0595786571502686,"524":2.328766345977783,"525":-1.046764850616455,"526":-0.7830581068992615,"527":1.3202621936798096,"528":0.551591694355011,"529":-3.0694282054901123,"530":-2.3107502460479736,"531":2.0405781269073486,"532":-0.8037534952163696,"533":0.5004416704177856,"534":-0.5677350759506226,"535":-0.8747197389602661,"536":2.3789477348327637,"537":0.5550445318222046,"538":-4.4160871505737305,"539":0.6745234727859497,"540":-0.1167350634932518,"541":-4.529964923858643,"542":5.698429584503174,"543":-3.791290760040283,"544":-1.2054702043533325,"545":0.40283477306365967,"546":1.9975428581237793,"547":-1.6150180101394653,"548":3.3637189865112305,"549":3.356015920639038,"550":1.1684952974319458,"551":2.502685070037842,"552":2.7584524154663086,"553":1.567125916481018,"554":3.337646007537842,"555":1.414364218711853,"556":0.9509344696998596,"557":-0.6315521001815796,"558":-1.3710918426513672,"559":0.7877213954925537,"560":5.058904647827148,"561":-3.2199697494506836,"562":1.7484982013702393,"563":-3.0746586322784424,"564":-3.8861963748931885,"565":4.934866428375244,"566":-2.1873114109039307,"567":-0.9725750088691711,"568":4.348617076873779,"569":2.0721516609191895,"570":-1.9825340509414673,"571":1.973300814628601,"572":-3.021855592727661,"573":2.4319069385528564,"574":3.5062501430511475,"575":-2.1051411628723145,"576":-0.61109459400177,"577":4.349030017852783,"578":0.8815827369689941,"579":2.6267595291137695,"580":3.592055082321167,"581":-2.202448606491089,"582":1.6431065797805786,"583":-0.9439796805381775,"584":-3.824227809906006,"585":-1.4394221305847168,"586":-2.5462534427642822,"587":2.3000423908233643,"588":-1.3350841999053955,"589":-0.6085007786750793,"590":1.1041128635406494,"591":-2.7435407638549805,"592":-2.424452066421509,"593":-1.4953714609146118,"594":-1.7656426429748535,"595":-0.6265254616737366,"596":1.138997197151184,"597":2.5152676105499268,"598":8.551453590393066,"599":-0.20108072459697723,"600":-2.927700996398926,"601":1.4316442012786865,"602":-0.8944743275642395,"603":-7.6832966804504395,"604":-4.3555588722229,"605":-3.6403305530548096,"606":-2.9196910858154297,"607":4.74972677230835,"608":0.7318626046180725,"609":1.7829715013504028,"610":4.535444259643555,"611":-0.5490974187850952,"612":-3.3371315002441406,"613":-3.0449912548065186,"614":6.025877475738525,"615":3.526196241378784,"616":0.8376147747039795,"617":-0.22767135500907898,"618":2.905546188354492,"619":2.260011672973633,"620":5.1122026443481445,"621":0.537056028842926,"622":-2.5099427700042725,"623":-1.5358169078826904,"624":0.8528969883918762,"625":-0.787468671798706,"626":0.12689179182052612,"627":0.21796473860740662,"628":0.13740043342113495,"629":-0.7959825396537781,"630":0.39970266819000244,"631":0.3335224688053131,"632":-0.8603498935699463,"633":1.5459808111190796,"634":-0.18938878178596497,"635":0.8859034776687622,"636":0.3943435847759247,"637":0.8990915417671204,"638":0.8942669034004211,"639":-0.9806448221206665,"640":2.0648365020751953,"641":-0.28264856338500977,"642":2.028402090072632,"643":0.8619053959846497,"644":-0.31312382221221924,"645":1.2344772815704346,"646":0.6858846545219421,"647":2.535531759262085,"648":-0.0059393723495304585,"649":0.5786165595054626,"650":-2.284666061401367,"651":1.9823853969573975,"652":-0.608799159526825,"653":-1.474190354347229,"654":-0.056652311235666275,"655":0.4545400142669678,"656":0.13121089339256287,"657":-0.48407843708992004,"658":-2.1101813316345215,"659":-0.49406173825263977,"660":0.2524999678134918,"661":-0.24988028407096863,"662":1.2118979692459106,"663":-2.4180498123168945,"664":-1.699359655380249,"665":1.1903260946273804,"666":-0.689925491809845,"667":-0.37083742022514343,"668":0.4476938247680664,"669":-2.1404266357421875,"670":1.0906914472579956,"671":-1.0987733602523804,"672":-1.004272699356079,"673":0.6307311058044434,"674":1.1791229248046875,"675":-0.6310252547264099,"676":-7.52925968170166,"677":-0.8907931447029114,"678":-1.333296298980713,"679":1.2573566436767578,"680":4.445354461669922,"681":1.2972151041030884,"682":1.853319525718689,"683":-0.06556738913059235,"684":0.4602818489074707,"685":-3.747398853302002,"686":-2.384075880050659,"687":-4.556869029998779,"688":0.45798927545547485,"689":-1.3368316888809204,"690":-4.091175556182861,"691":2.681654691696167,"692":-3.025597095489502,"693":-2.547433376312256,"694":-2.2107317447662354,"695":-0.8526182174682617,"696":1.1274244785308838,"697":-4.404867649078369,"698":3.307701826095581,"699":3.141125202178955,"700":0.3436969816684723,"701":1.5601304769515991}},"hiddenLayers":[{"inputMatrix":{"rows":20,"columns":26,"weights":{"0":0.5524030327796936,"1":0.4924945533275604,"2":-0.546454131603241,"3":-0.3412225842475891,"4":-0.5744249224662781,"5":-0.282480388879776,"6":-0.6138381958007812,"7":-1.221589207649231,"8":-0.47450312972068787,"9":-2.2363359928131104,"10":0.9667491912841797,"11":0.2773413360118866,"12":1.8437873125076294,"13":-0.3513290286064148,"14":0.3164377808570862,"15":0.8924680948257446,"16":0.4316078722476959,"17":0.6842613220214844,"18":0.10975173860788345,"19":-0.32943087816238403,"20":1.165833592414856,"21":-1.8601773977279663,"22":-0.11258847266435623,"23":-1.8581571578979492,"24":0.09316127002239227,"25":-1.252663016319275,"26":0.8006488680839539,"27":-0.42486509680747986,"28":-0.48290178179740906,"29":0.7501994371414185,"30":0.5995680689811707,"31":-0.9330922961235046,"32":-0.80478435754776,"33":-0.7162438631057739,"34":-0.679713785648346,"35":2.033994674682617,"36":-0.5368074774742126,"37":-1.1780003309249878,"38":0.790331244468689,"39":-0.20013514161109924,"40":-0.2656182050704956,"41":0.36046719551086426,"42":-0.42339256405830383,"43":0.08969768136739731,"44":0.6301764249801636,"45":0.5252673625946045,"46":-0.150967076420784,"47":2.688530206680298,"48":0.2573522925376892,"49":0.8614497780799866,"50":0.8835417032241821,"51":-0.29362988471984863,"52":1.0793088674545288,"53":0.7195018529891968,"54":-2.598768472671509,"55":0.16222064197063446,"56":-0.4724704623222351,"57":-2.31278133392334,"58":-3.1223843097686768,"59":-2.3875937461853027,"60":-0.31227484345436096,"61":-0.14066630601882935,"62":0.8456616401672363,"63":-0.5867643356323242,"64":-0.1680637001991272,"65":-0.11416953057050705,"66":0.6103072166442871,"67":0.5886517763137817,"68":0.3427027463912964,"69":3.1135923862457275,"70":-0.6050669550895691,"71":-0.1498570293188095,"72":2.3346850872039795,"73":-1.0267362594604492,"74":0.09894577413797379,"75":-1.124506950378418,"76":0.0969686433672905,"77":-2.795611619949341,"78":0.1757919192314148,"79":-2.5301148891448975,"80":0.1496485322713852,"81":1.4524991512298584,"82":1.0619359016418457,"83":-0.5960682034492493,"84":0.5885788798332214,"85":-0.013455541804432869,"86":-0.5252241492271423,"87":0.19540010392665863,"88":-0.8017200827598572,"89":1.6935261487960815,"90":-0.6358287930488586,"91":1.5180840492248535,"92":-1.1488187313079834,"93":-1.237929105758667,"94":0.8982885479927063,"95":-1.2576897144317627,"96":0.40901902318000793,"97":1.4089181423187256,"98":-0.8710110783576965,"99":0.24974755942821503,"100":2.282203197479248,"101":0.5106658935546875,"102":-0.5868396759033203,"103":0.5728815793991089,"104":0.4891573488712311,"105":-2.715930461883545,"106":-0.9762790203094482,"107":2.3777410984039307,"108":2.0524866580963135,"109":-1.168868899345398,"110":-0.3790157437324524,"111":-0.10854209959506989,"112":-0.5273271203041077,"113":-0.522230863571167,"114":-2.057182550430298,"115":0.8898183107376099,"116":-1.546773076057434,"117":1.6954998970031738,"118":-0.12562787532806396,"119":-0.1466934233903885,"120":1.3218529224395752,"121":0.347172349691391,"122":-0.17406950891017914,"123":1.6651766300201416,"124":0.06147100403904915,"125":-0.38238638639450073,"126":0.9313983917236328,"127":-0.07401828467845917,"128":-0.31413358449935913,"129":-1.1391440629959106,"130":-1.5590273141860962,"131":1.7207146883010864,"132":-0.039676547050476074,"133":-1.791569471359253,"134":-1.1952801942825317,"135":0.17024821043014526,"136":-0.46228334307670593,"137":0.10567614436149597,"138":0.6144945025444031,"139":-0.5849817991256714,"140":1.0833075046539307,"141":-0.3285810649394989,"142":0.06918920576572418,"143":-1.1663066148757935,"144":-1.0409231185913086,"145":1.7030218839645386,"146":-0.2054043561220169,"147":0.6863357424736023,"148":-0.7490704655647278,"149":-1.2659692764282227,"150":0.4679935872554779,"151":-0.680965006351471,"152":-1.117435097694397,"153":-0.6951771974563599,"154":1.2000889778137207,"155":0.018504146486520767,"156":-0.8628488183021545,"157":1.0881154537200928,"158":-1.2766046524047852,"159":-1.0309854745864868,"160":-1.9441567659378052,"161":-0.3934663236141205,"162":-0.2813725173473358,"163":-0.45058178901672363,"164":-1.8392512798309326,"165":0.7460294961929321,"166":1.8873823881149292,"167":0.8228674530982971,"168":1.0771903991699219,"169":-1.7049195766448975,"170":0.5331219434738159,"171":0.06583071500062943,"172":1.036997675895691,"173":1.0545929670333862,"174":0.4798724949359894,"175":-1.4513639211654663,"176":1.896777868270874,"177":1.2831180095672607,"178":-1.0206853151321411,"179":0.2790711224079132,"180":1.0179381370544434,"181":-1.083430528640747,"182":1.1100715398788452,"183":-2.745196580886841,"184":1.3295620679855347,"185":0.3089885413646698,"186":1.1118828058242798,"187":-0.43677571415901184,"188":-0.037724509835243225,"189":0.8723790049552917,"190":0.9204151034355164,"191":0.7011169195175171,"192":-1.482959270477295,"193":1.2648838758468628,"194":-0.4905146658420563,"195":-0.22480061650276184,"196":0.6924549341201782,"197":-1.5480055809020996,"198":1.374401569366455,"199":-0.3060002326965332,"200":0.5612874627113342,"201":0.1288352906703949,"202":-1.3079513311386108,"203":1.8364784717559814,"204":1.201157808303833,"205":-0.7582430839538574,"206":-0.14862431585788727,"207":1.1824694871902466,"208":0.6456988453865051,"209":-0.5490860342979431,"210":-0.9086044430732727,"211":0.3529954254627228,"212":0.06907140463590622,"213":-1.9838149547576904,"214":-1.5188907384872437,"215":-1.130150318145752,"216":-1.0105315446853638,"217":-2.0715696811676025,"218":0.3552318513393402,"219":1.698271632194519,"220":1.2064568996429443,"221":-0.2072140872478485,"222":0.030740976333618164,"223":0.1455434113740921,"224":1.8912800550460815,"225":0.588314414024353,"226":0.5261205434799194,"227":-0.036590199917554855,"228":0.7754009962081909,"229":-1.9873601198196411,"230":0.14751437306404114,"231":-0.7497158050537109,"232":0.7725846171379089,"233":-1.009630560874939,"234":-1.3526582717895508,"235":0.984563946723938,"236":-0.7377172708511353,"237":-0.00691566476598382,"238":-0.46968910098075867,"239":0.5050480961799622,"240":0.5974864363670349,"241":-0.7858923673629761,"242":-0.23100949823856354,"243":0.49570345878601074,"244":0.8441641926765442,"245":-1.8389827013015747,"246":0.8545804619789124,"247":0.16872002184391022,"248":-1.4902194738388062,"249":0.19367946684360504,"250":-2.3313870429992676,"251":0.20500034093856812,"252":0.12450592964887619,"253":-0.03876173496246338,"254":1.2703688144683838,"255":0.39210614562034607,"256":-0.16960638761520386,"257":-0.06013871729373932,"258":0.3279578387737274,"259":-0.3820359408855438,"260":-0.9139214754104614,"261":0.3463231325149536,"262":1.5041214227676392,"263":-0.30180150270462036,"264":0.1257680505514145,"265":1.6723685264587402,"266":1.7720966339111328,"267":0.7750915884971619,"268":0.7860154509544373,"269":1.6870561838150024,"270":0.04937278851866722,"271":-0.01666681282222271,"272":-0.7149587273597717,"273":-0.8043025732040405,"274":-0.704782247543335,"275":0.009858823381364346,"276":-0.030326101928949356,"277":-1.4470099210739136,"278":0.830420732498169,"279":-0.28556376695632935,"280":-0.5831434726715088,"281":0.7387070655822754,"282":-0.04370502382516861,"283":1.730212688446045,"284":1.0703245401382446,"285":1.3768748044967651,"286":1.9662981033325195,"287":-1.2721539735794067,"288":-0.020941777154803276,"289":1.4527736902236938,"290":0.2334338128566742,"291":-1.140289068222046,"292":-0.23139865696430206,"293":-0.3158740699291229,"294":-0.8145797848701477,"295":1.4697407484054565,"296":-0.29244962334632874,"297":-0.38617023825645447,"298":0.8201674818992615,"299":1.8044188022613525,"300":0.738204836845398,"301":-2.767172336578369,"302":-0.1699247807264328,"303":0.1182328388094902,"304":0.022753151133656502,"305":1.5907306671142578,"306":-0.23727774620056152,"307":2.418449878692627,"308":0.668853759765625,"309":-1.0919361114501953,"310":-2.6293184757232666,"311":0.09743018448352814,"312":-0.18869516253471375,"313":1.9406195878982544,"314":-0.08988010883331299,"315":-0.5908821225166321,"316":-1.1583136320114136,"317":1.5117028951644897,"318":0.16576308012008667,"319":0.4993547797203064,"320":-1.2164242267608643,"321":1.445350170135498,"322":0.8351450562477112,"323":-1.9231804609298706,"324":0.8756585717201233,"325":0.4626975357532501,"326":-0.15692485868930817,"327":0.28964000940322876,"328":-2.1923727989196777,"329":0.6355932354927063,"330":0.9517953395843506,"331":-0.21293313801288605,"332":0.7779364585876465,"333":2.0692055225372314,"334":-0.8950379490852356,"335":0.672429621219635,"336":-0.26476961374282837,"337":0.32718050479888916,"338":0.1037696897983551,"339":-0.5570675134658813,"340":0.3082958161830902,"341":0.07680700719356537,"342":1.1464043855667114,"343":0.1557302176952362,"344":0.600196123123169,"345":0.32884207367897034,"346":0.178726926445961,"347":1.318755865097046,"348":-1.4320521354675293,"349":-1.2895859479904175,"350":0.5943992733955383,"351":0.632112979888916,"352":0.6134457588195801,"353":-0.30129778385162354,"354":-1.7470782995224,"355":-0.9818204045295715,"356":1.0104519128799438,"357":0.19622138142585754,"358":-0.5681028366088867,"359":1.9645955562591553,"360":0.13072805106639862,"361":2.0368080139160156,"362":-0.8348854780197144,"363":0.41813889145851135,"364":-0.9773720502853394,"365":1.6555570363998413,"366":-0.17062021791934967,"367":-0.9075815081596375,"368":-0.8129487633705139,"369":-0.24279673397541046,"370":0.2101862132549286,"371":-0.6240413784980774,"372":0.18627086281776428,"373":0.9883749485015869,"374":0.8817312717437744,"375":-0.3664913773536682,"376":-0.08994153141975403,"377":-1.2016127109527588,"378":-1.7676845788955688,"379":1.0731021165847778,"380":-0.5298982858657837,"381":-0.2485368698835373,"382":0.2901121973991394,"383":-0.9948476552963257,"384":0.862062931060791,"385":0.9148361682891846,"386":-1.21474289894104,"387":1.0023555755615234,"388":1.5945907831192017,"389":-0.7901008129119873,"390":0.7596198916435242,"391":0.8275546431541443,"392":-1.2106328010559082,"393":-0.30578988790512085,"394":-0.7305884957313538,"395":-1.4472911357879639,"396":-1.4369665384292603,"397":-0.9418631792068481,"398":-1.277098298072815,"399":-0.4246160089969635,"400":0.8253645300865173,"401":1.3782033920288086,"402":0.4751775562763214,"403":-0.15501312911510468,"404":0.2308957576751709,"405":0.5953115820884705,"406":1.4778274297714233,"407":1.4005070924758911,"408":0.2754665017127991,"409":-0.15590502321720123,"410":0.792504072189331,"411":-1.2667042016983032,"412":-0.6560209393501282,"413":0.31359216570854187,"414":0.423628032207489,"415":-0.9188891649246216,"416":0.6616296172142029,"417":0.14829032123088837,"418":-1.0419081449508667,"419":-0.6716499924659729,"420":-0.2730622887611389,"421":-0.7724979519844055,"422":-0.058404341340065,"423":-0.8703889846801758,"424":-1.6609888076782227,"425":0.11111704260110855,"426":0.20052705705165863,"427":0.3509919345378876,"428":1.2415531873703003,"429":-0.6902043223381042,"430":0.3232535123825073,"431":-1.0585579872131348,"432":-0.4344255030155182,"433":0.42070773243904114,"434":0.469936728477478,"435":-0.7049336433410645,"436":1.4057159423828125,"437":-0.271304726600647,"438":-0.5262339115142822,"439":-0.44707462191581726,"440":0.05567345768213272,"441":-0.6267812848091125,"442":0.3834506869316101,"443":-0.285374253988266,"444":-0.32962024211883545,"445":-0.40795403718948364,"446":-0.1241346001625061,"447":0.36911919713020325,"448":0.31381624937057495,"449":0.2508464753627777,"450":-1.282924771308899,"451":2.0380895137786865,"452":-0.14870920777320862,"453":-0.3234612047672272,"454":0.7766226530075073,"455":-0.05163727328181267,"456":-0.8395878672599792,"457":-1.4936655759811401,"458":-1.3606127500534058,"459":-0.18024450540542603,"460":0.9343538284301758,"461":-0.14437338709831238,"462":0.7204414010047913,"463":1.9686764478683472,"464":-0.880059540271759,"465":1.0875595808029175,"466":-0.5109917521476746,"467":-0.2748049199581146,"468":-0.026869406923651695,"469":0.5852059125900269,"470":-0.9505876302719116,"471":-0.17213569581508636,"472":0.013025730848312378,"473":-0.5115621089935303,"474":-0.5917193293571472,"475":0.19226662814617157,"476":-0.11255014687776566,"477":-1.3458362817764282,"478":-0.04654579237103462,"479":0.4086216688156128,"480":-0.40703973174095154,"481":-0.8468197584152222,"482":-0.40670499205589294,"483":1.0772682428359985,"484":0.6739020347595215,"485":1.0835613012313843,"486":-0.9569664597511292,"487":-0.6681338548660278,"488":0.7508475184440613,"489":-1.4375486373901367,"490":0.28093576431274414,"491":-1.026243805885315,"492":0.5884640216827393,"493":-0.2791505753993988,"494":0.11449746042490005,"495":-1.386439323425293,"496":0.39230892062187195,"497":1.4071089029312134,"498":-0.28884974122047424,"499":0.42199984192848206,"500":0.5711261630058289,"501":0.3919254541397095,"502":0.9109783172607422,"503":0.10897060483694077,"504":0.1512584239244461,"505":-1.4535748958587646,"506":0.4077012836933136,"507":1.8115357160568237,"508":1.8259446620941162,"509":1.3187377452850342,"510":-0.08053258061408997,"511":0.3151319921016693,"512":0.22936132550239563,"513":3.387364387512207,"514":-0.016103114932775497,"515":0.7764556407928467,"516":0.8123646378517151,"517":1.5025475025177002,"518":1.31605064868927,"519":0.6816276907920837}},"inputHidden":{"rows":20,"columns":20,"weights":{"0":-1.0224740505218506,"1":-0.7041943669319153,"2":1.3131517171859741,"3":-0.7484099268913269,"4":-0.6192971467971802,"5":0.2665908932685852,"6":1.1559821367263794,"7":-1.721664547920227,"8":0.8504706621170044,"9":0.5123616456985474,"10":-1.1641552448272705,"11":1.010621428489685,"12":0.2416008859872818,"13":0.48356756567955017,"14":0.13325628638267517,"15":1.249138355255127,"16":1.0823899507522583,"17":0.4887138903141022,"18":0.6061075329780579,"19":0.7539655566215515,"20":2.1295197010040283,"21":0.18682673573493958,"22":-0.3178797960281372,"23":-2.5239672660827637,"24":1.9957281351089478,"25":-0.022739743813872337,"26":-2.422544240951538,"27":-0.4121769070625305,"28":-0.9940693974494934,"29":2.07092547416687,"30":-1.861717939376831,"31":-0.9695932865142822,"32":0.016315648332238197,"33":0.07453832030296326,"34":-0.599561333656311,"35":-1.6504687070846558,"36":-0.2329302430152893,"37":0.16330809891223907,"38":-1.6079765558242798,"39":-0.4505036771297455,"40":-0.24522559344768524,"41":0.15911895036697388,"42":0.0692145973443985,"43":0.1675986349582672,"44":-0.053276218473911285,"45":0.23739853501319885,"46":0.9524248838424683,"47":-0.4028039872646332,"48":-0.25843045115470886,"49":0.8616694808006287,"50":0.3485425114631653,"51":-0.6217139959335327,"52":0.1384367048740387,"53":1.2234479188919067,"54":-0.20157183706760406,"55":0.23426730930805206,"56":1.0163054466247559,"57":-0.1843709796667099,"58":1.481086254119873,"59":0.8820756077766418,"60":0.7479642629623413,"61":0.8686374425888062,"62":1.0063822269439697,"63":-1.7140921354293823,"64":2.6342291831970215,"65":1.0460916757583618,"66":0.5658481121063232,"67":-0.006266102194786072,"68":0.11934535950422287,"69":1.4895676374435425,"70":-0.9004338979721069,"71":-0.29872894287109375,"72":-0.14220160245895386,"73":2.825383424758911,"74":0.38902246952056885,"75":-0.6179412603378296,"76":-2.2332115173339844,"77":-1.6503416299819946,"78":-1.9905331134796143,"79":1.7679543495178223,"80":-0.04517270252108574,"81":-0.8237743973731995,"82":1.2838391065597534,"83":0.23612017929553986,"84":-0.5358046889305115,"85":-0.5016501545906067,"86":0.46390238404273987,"87":0.5408326983451843,"88":-1.3033562898635864,"89":0.12251466512680054,"90":0.8890194296836853,"91":2.145735502243042,"92":0.6697957515716553,"93":0.33695805072784424,"94":-0.3053551912307739,"95":0.1956329047679901,"96":0.34351032972335815,"97":-0.604054868221283,"98":0.466086208820343,"99":0.09442248940467834,"100":0.34110227227211,"101":-0.05626821145415306,"102":-1.0798767805099487,"103":2.0224504470825195,"104":-0.762197732925415,"105":0.37447747588157654,"106":-1.4830222129821777,"107":-1.006234884262085,"108":1.863374948501587,"109":-1.9262003898620605,"110":0.24699506163597107,"111":-0.9877719879150391,"112":0.40888944268226624,"113":-0.46949413418769836,"114":-1.0176948308944702,"115":-1.1053823232650757,"116":-2.2564005851745605,"117":1.407485008239746,"118":-0.9364281892776489,"119":-0.7222132682800293,"120":0.23395602405071259,"121":0.8968488574028015,"122":2.5957460403442383,"123":-1.3891971111297607,"124":1.1158612966537476,"125":-0.8623640537261963,"126":-1.1060802936553955,"127":1.867194414138794,"128":-0.0903373509645462,"129":0.13051792979240417,"130":-2.451268196105957,"131":-0.020539885386824608,"132":0.9081230759620667,"133":1.3864164352416992,"134":0.9054854512214661,"135":0.7598090767860413,"136":0.3517012894153595,"137":-0.709211528301239,"138":1.0883365869522095,"139":1.2355561256408691,"140":-0.7112653851509094,"141":0.051722362637519836,"142":1.0869741439819336,"143":-0.25881585478782654,"144":0.5616224408149719,"145":1.93734610080719,"146":-0.47937440872192383,"147":0.21323677897453308,"148":-1.959955096244812,"149":-0.44620105624198914,"150":-0.7546102404594421,"151":1.7671345472335815,"152":0.6994898915290833,"153":1.3520046472549438,"154":-0.014964818954467773,"155":1.6114461421966553,"156":1.3309919834136963,"157":-1.435485601425171,"158":0.6787165999412537,"159":-0.4183652102947235,"160":-1.1183606386184692,"161":0.04921388626098633,"162":-0.15474356710910797,"163":-0.23107385635375977,"164":1.1560572385787964,"165":-1.8725546598434448,"166":0.771312952041626,"167":0.8083251714706421,"168":-0.06578784435987473,"169":0.7755391001701355,"170":1.2160910367965698,"171":-0.6472643613815308,"172":3.030078411102295,"173":0.3237467110157013,"174":-1.817945957183838,"175":0.9583297967910767,"176":1.719818115234375,"177":1.6481354236602783,"178":0.10389456897974014,"179":-0.08031101524829865,"180":1.3990918397903442,"181":0.896857500076294,"182":-2.0260837078094482,"183":0.09247079491615295,"184":-0.716906726360321,"185":-2.089353322982788,"186":-0.5469996929168701,"187":0.5967039465904236,"188":-0.27466604113578796,"189":-2.008279323577881,"190":0.2095651924610138,"191":-1.4375656843185425,"192":-0.813767671585083,"193":-0.05264323204755783,"194":-0.14919455349445343,"195":0.008997086435556412,"196":-0.5009028315544128,"197":-1.1495356559753418,"198":0.37009191513061523,"199":-0.6372387409210205,"200":-1.1718536615371704,"201":1.3926044702529907,"202":-1.2030141353607178,"203":-0.7559080719947815,"204":1.3996472358703613,"205":-0.23846913874149323,"206":1.1170319318771362,"207":0.3468007743358612,"208":0.9806199669837952,"209":1.3169384002685547,"210":-1.6321585178375244,"211":-0.7336803674697876,"212":1.4802895784378052,"213":1.0724592208862305,"214":-0.24427516758441925,"215":1.9232314825057983,"216":-0.13217267394065857,"217":0.2825334072113037,"218":0.6054337620735168,"219":2.3831467628479004,"220":-0.13212363421916962,"221":-2.057419538497925,"222":0.2814919948577881,"223":0.9936877489089966,"224":1.3620840311050415,"225":-1.8561468124389648,"226":-1.019092082977295,"227":0.8590050935745239,"228":0.011472783051431179,"229":1.2949466705322266,"230":1.1998637914657593,"231":-1.4119279384613037,"232":1.5014033317565918,"233":-1.2653695344924927,"234":-1.3874567747116089,"235":0.8586543202400208,"236":-2.477356433868408,"237":-1.399929404258728,"238":-0.04925279691815376,"239":-1.0955986976623535,"240":1.0296080112457275,"241":-1.0423084497451782,"242":0.45754948258399963,"243":-0.5705916881561279,"244":-0.5769633054733276,"245":-2.2776222229003906,"246":0.2262122482061386,"247":-0.9582014679908752,"248":-0.5928098559379578,"249":0.7143333554267883,"250":1.8325001001358032,"251":0.5424075722694397,"252":1.125239610671997,"253":-2.3498594760894775,"254":1.5026334524154663,"255":-3.083211898803711,"256":-1.6594780683517456,"257":1.397045612335205,"258":-2.2966434955596924,"259":-0.40728551149368286,"260":0.643767774105072,"261":1.4274864196777344,"262":-0.19282962381839752,"263":-2.296255111694336,"264":0.6592994332313538,"265":-2.5597445964813232,"266":-0.015076092444360256,"267":1.664345383644104,"268":-0.583426833152771,"269":0.953518807888031,"270":0.25324541330337524,"271":-2.4194960594177246,"272":-1.0884013175964355,"273":1.9070801734924316,"274":0.0744926705956459,"275":0.13669350743293762,"276":0.06969708949327469,"277":-2.686367988586426,"278":-1.124971866607666,"279":-0.11956879496574402,"280":0.534308671951294,"281":0.9219673275947571,"282":-0.6828890442848206,"283":1.4992307424545288,"284":-0.9466896653175354,"285":2.1382739543914795,"286":-0.7057520151138306,"287":-0.30817851424217224,"288":-2.877030849456787,"289":-1.0646109580993652,"290":-1.2228937149047852,"291":0.0025991841685026884,"292":1.005443811416626,"293":-0.3464650809764862,"294":2.0349619388580322,"295":-1.7148990631103516,"296":-0.8066422343254089,"297":1.544379472732544,"298":2.057227373123169,"299":-0.7483380436897278,"300":-0.5207191705703735,"301":0.5226188898086548,"302":1.8777499198913574,"303":-0.9274458885192871,"304":1.0661925077438354,"305":0.2147349864244461,"306":1.1844139099121094,"307":0.6293194890022278,"308":1.0258108377456665,"309":0.8619983792304993,"310":0.8835843801498413,"311":0.5140697360038757,"312":1.0852737426757812,"313":3.1713879108428955,"314":-1.7646700143814087,"315":-0.2205779254436493,"316":-0.7818583250045776,"317":-1.1760601997375488,"318":-0.3062566816806793,"319":1.340096116065979,"320":1.5575659275054932,"321":0.7217990756034851,"322":0.03647391125559807,"323":-1.790837049484253,"324":1.6544408798217773,"325":0.5856484770774841,"326":-2.3049211502075195,"327":0.11654463410377502,"328":-2.9652440547943115,"329":0.48015081882476807,"330":-0.18980422616004944,"331":2.6006202697753906,"332":-1.1656326055526733,"333":0.8133655190467834,"334":-0.8543052077293396,"335":-3.6252052783966064,"336":1.5752825736999512,"337":0.5613599419593811,"338":-1.990090250968933,"339":-1.0145320892333984,"340":2.6319057941436768,"341":-2.1667840480804443,"342":-0.19085851311683655,"343":3.204030752182007,"344":-0.4142775237560272,"345":-0.8603479266166687,"346":-3.6835145950317383,"347":-1.169777512550354,"348":-1.5558016300201416,"349":-1.5986734628677368,"350":1.5475525856018066,"351":-0.281668484210968,"352":1.1533243656158447,"353":-2.8715269565582275,"354":-0.9018021821975708,"355":-3.1823465824127197,"356":-0.40135663747787476,"357":2.5571138858795166,"358":-1.7099510431289673,"359":-0.6986956596374512,"360":2.1896376609802246,"361":1.1631193161010742,"362":-1.4848812818527222,"363":-2.8973159790039062,"364":3.0763232707977295,"365":0.21991606056690216,"366":-0.5014612674713135,"367":1.5140907764434814,"368":-4.097105026245117,"369":0.21726582944393158,"370":-0.06366460025310516,"371":-0.5053572654724121,"372":-0.6885471940040588,"373":2.2829551696777344,"374":-1.3104541301727295,"375":-2.856293201446533,"376":2.163299322128296,"377":0.20102842152118683,"378":-2.3277363777160645,"379":-1.2618134021759033,"380":-0.07438831776380539,"381":0.7683241367340088,"382":-0.707704484462738,"383":-1.0362186431884766,"384":1.280309796333313,"385":-0.008514835499227047,"386":2.403482437133789,"387":1.8227871656417847,"388":2.097154378890991,"389":-1.5275311470031738,"390":-0.8269373178482056,"391":-0.38525742292404175,"392":-0.09294053167104721,"393":1.080138087272644,"394":0.1767856478691101,"395":0.02607116848230362,"396":3.389122247695923,"397":-1.090181589126587,"398":-2.0522828102111816,"399":-1.4574711322784424}},"inputBias":{"rows":20,"columns":1,"weights":{"0":-0.26781973242759705,"1":-0.5452080965042114,"2":1.595314383506775,"3":0.04982141777873039,"4":0.264159619808197,"5":0.08099572360515594,"6":-1.157505989074707,"7":-1.4137247800827026,"8":-0.006338013336062431,"9":-1.1742161512374878,"10":-0.7721065282821655,"11":-0.6940909028053284,"12":0.3309342563152313,"13":-1.1361839771270752,"14":-0.3176216185092926,"15":0.21543538570404053,"16":-2.005685567855835,"17":-0.6589029431343079,"18":0.08791999518871307,"19":-0.724428653717041}},"forgetMatrix":{"rows":20,"columns":26,"weights":{"0":1.8773375749588013,"1":-1.0382258892059326,"2":0.6934831142425537,"3":0.4180971086025238,"4":0.7614922523498535,"5":-0.4559715986251831,"6":-0.13245759904384613,"7":0.5614401698112488,"8":0.38561955094337463,"9":0.28369754552841187,"10":-0.5883639454841614,"11":3.221259117126465,"12":0.5777609944343567,"13":-0.4162966012954712,"14":0.8970686197280884,"15":-1.7511733770370483,"16":2.5198426246643066,"17":-0.8224757313728333,"18":-0.23575718700885773,"19":-0.2875075340270996,"20":-1.3947309255599976,"21":-0.9210572838783264,"22":0.5540536046028137,"23":0.6778455972671509,"24":-0.8854174613952637,"25":0.023091433569788933,"26":0.3378857970237732,"27":-0.4459210932254791,"28":0.033826738595962524,"29":0.9686639904975891,"30":-0.04218897968530655,"31":0.4412834942340851,"32":-0.3624415695667267,"33":-0.4423254430294037,"34":1.0856118202209473,"35":-1.1298555135726929,"36":0.24953344464302063,"37":0.05062278360128403,"38":-0.3001459538936615,"39":1.0642805099487305,"40":0.2291552871465683,"41":0.1265062391757965,"42":-0.2446388453245163,"43":0.554777979850769,"44":-2.1979737281799316,"45":1.1248914003372192,"46":0.8171706199645996,"47":-1.0484936237335205,"48":1.2107025384902954,"49":-1.0540058612823486,"50":-0.7518385648727417,"51":-0.5257449746131897,"52":0.9257670640945435,"53":0.5667219161987305,"54":-0.27218544483184814,"55":0.686062753200531,"56":-0.45997893810272217,"57":-0.4185537099838257,"58":-0.3103547990322113,"59":-0.23813243210315704,"60":0.9767788052558899,"61":-0.03820963203907013,"62":0.33175578713417053,"63":0.29654476046562195,"64":-1.116153597831726,"65":0.12264055013656616,"66":1.3146010637283325,"67":-1.6850903034210205,"68":-0.31713035702705383,"69":0.49002400040626526,"70":-3.138903856277466,"71":-0.04718941077589989,"72":0.21178120374679565,"73":0.9517786502838135,"74":1.2945153713226318,"75":-0.8457168340682983,"76":-1.2517964839935303,"77":-0.3638662099838257,"78":0.37348487973213196,"79":0.220209002494812,"80":-0.44783616065979004,"81":0.2985002100467682,"82":-0.4314131438732147,"83":-0.6637837886810303,"84":-1.7899576425552368,"85":-1.3172703981399536,"86":1.106345534324646,"87":-1.7504278421401978,"88":0.6403830051422119,"89":-0.0358181931078434,"90":-0.013326284475624561,"91":-0.4033232629299164,"92":0.37726885080337524,"93":0.38222241401672363,"94":-0.40933749079704285,"95":1.3311100006103516,"96":-1.1609045267105103,"97":-0.07437514513731003,"98":0.7231649160385132,"99":-0.6931894421577454,"100":-0.20491935312747955,"101":-2.041201114654541,"102":0.03832799568772316,"103":-1.9281309843063354,"104":1.8011819124221802,"105":-0.00218870653770864,"106":-0.754571259021759,"107":-0.3582145869731903,"108":-0.23639389872550964,"109":-1.1655943393707275,"110":-0.943153977394104,"111":-0.14408941566944122,"112":-1.0733238458633423,"113":-1.6051857471466064,"114":0.08619353175163269,"115":0.7177251577377319,"116":0.06719326227903366,"117":-0.031653471291065216,"118":2.163492202758789,"119":-0.23186954855918884,"120":2.009819269180298,"121":1.0857822895050049,"122":-0.9316924810409546,"123":0.08078163117170334,"124":0.37422844767570496,"125":-1.758897066116333,"126":0.3504563570022583,"127":-0.6175193786621094,"128":-0.005881479475647211,"129":-0.16325530409812927,"130":0.2356753945350647,"131":-1.2339485883712769,"132":0.8223336935043335,"133":0.8694654703140259,"134":2.28266978263855,"135":0.3966405689716339,"136":1.4576692581176758,"137":1.1206446886062622,"138":-0.17377270758152008,"139":0.9844992756843567,"140":-1.9744997024536133,"141":0.5158250331878662,"142":-0.46933937072753906,"143":2.227008581161499,"144":-0.21176153421401978,"145":-1.7499217987060547,"146":0.02563001774251461,"147":-1.699464201927185,"148":-0.09015244245529175,"149":0.8245364427566528,"150":-1.430159330368042,"151":0.948822021484375,"152":1.017752766609192,"153":2.387917995452881,"154":-2.1115317344665527,"155":1.2130929231643677,"156":-0.9556134343147278,"157":-0.10903363674879074,"158":-0.6252633333206177,"159":0.4459065794944763,"160":-0.08156289905309677,"161":0.1360081434249878,"162":0.049579840153455734,"163":0.34768298268318176,"164":0.7403286099433899,"165":-1.1132906675338745,"166":0.542046308517456,"167":1.7066912651062012,"168":-1.0869343280792236,"169":1.2081024646759033,"170":-0.49868232011795044,"171":-0.6016424894332886,"172":1.4950765371322632,"173":0.9861528277397156,"174":-1.546177864074707,"175":1.1194655895233154,"176":0.4999610185623169,"177":-1.5761357545852661,"178":1.270867109298706,"179":-0.3530797064304352,"180":-0.009344694204628468,"181":0.49198710918426514,"182":0.9441125392913818,"183":0.5917217135429382,"184":-1.8546264171600342,"185":0.1347617208957672,"186":-1.1606131792068481,"187":-1.5583804845809937,"188":-0.6723049879074097,"189":-1.4190459251403809,"190":-1.7369998693466187,"191":0.987825870513916,"192":1.0512076616287231,"193":-0.1114170253276825,"194":0.7208979725837708,"195":0.38991832733154297,"196":0.27621692419052124,"197":-1.4953720569610596,"198":-0.20488864183425903,"199":1.0373836755752563,"200":0.5258193612098694,"201":0.44248148798942566,"202":1.2889022827148438,"203":1.2758208513259888,"204":1.021132230758667,"205":0.5112855434417725,"206":0.23787687718868256,"207":-1.0039530992507935,"208":1.2507195472717285,"209":-0.45115113258361816,"210":-1.166789174079895,"211":0.9672439694404602,"212":-0.14296206831932068,"213":-0.988494336605072,"214":-0.8465846180915833,"215":-0.9719730615615845,"216":-0.48968565464019775,"217":0.0882224440574646,"218":0.28850623965263367,"219":1.0487667322158813,"220":0.337810218334198,"221":0.32829606533050537,"222":0.8353338837623596,"223":-1.0095916986465454,"224":1.1052087545394897,"225":0.8273113369941711,"226":-0.2232353687286377,"227":0.6079766750335693,"228":0.7549315690994263,"229":-0.5667487382888794,"230":0.9697975516319275,"231":-0.7803300619125366,"232":-0.6340005397796631,"233":-0.9808984994888306,"234":1.6217057704925537,"235":0.8269209861755371,"236":-0.7490553855895996,"237":0.8163495063781738,"238":-0.236815944314003,"239":0.4988700747489929,"240":-0.07472613453865051,"241":-0.560364842414856,"242":0.0848502516746521,"243":-0.3812742829322815,"244":0.44611239433288574,"245":-1.0497244596481323,"246":-0.14048512279987335,"247":1.4406570196151733,"248":0.9535818099975586,"249":-0.7286569476127625,"250":-0.35728198289871216,"251":-0.013438570313155651,"252":-0.7625887989997864,"253":1.0740960836410522,"254":0.8690495491027832,"255":0.417487233877182,"256":1.3930608034133911,"257":-0.5373742580413818,"258":-1.80470609664917,"259":-0.02062414586544037,"260":0.3514374792575836,"261":-0.15410342812538147,"262":0.8265606760978699,"263":0.6568349003791809,"264":0.7318462133407593,"265":0.5744708180427551,"266":0.874854564666748,"267":1.242050051689148,"268":0.41300979256629944,"269":0.1294747292995453,"270":-0.6829774379730225,"271":-1.1783745288848877,"272":-0.9341455698013306,"273":0.9387470483779907,"274":0.4025695323944092,"275":0.0071942550130188465,"276":-0.594535231590271,"277":-0.9765866994857788,"278":-0.678626298904419,"279":0.6004935503005981,"280":-1.0032016038894653,"281":1.4327120780944824,"282":0.1605316549539566,"283":1.0941985845565796,"284":-0.29182112216949463,"285":1.2244902849197388,"286":-0.6232246160507202,"287":0.4113350510597229,"288":-0.41340574622154236,"289":0.3299783170223236,"290":-0.27563026547431946,"291":1.5835328102111816,"292":0.9032390117645264,"293":0.9258651733398438,"294":-0.2915300130844116,"295":0.4395821988582611,"296":0.13956089317798615,"297":-2.2277743816375732,"298":1.1876587867736816,"299":1.438920497894287,"300":-0.761417806148529,"301":-0.06672584265470505,"302":-2.63881516456604,"303":0.0519808754324913,"304":-0.8764901161193848,"305":0.7808757424354553,"306":0.5382370352745056,"307":0.6392752528190613,"308":0.32922083139419556,"309":-0.1331929713487625,"310":-1.1890885829925537,"311":0.22272752225399017,"312":1.7037231922149658,"313":0.23396456241607666,"314":-0.2408231496810913,"315":0.10493732243776321,"316":-0.276777982711792,"317":-0.3413788080215454,"318":-0.7186148762702942,"319":-0.6668791770935059,"320":0.12412654608488083,"321":0.709775447845459,"322":-0.018150439485907555,"323":-0.6194964647293091,"324":0.7473538517951965,"325":-0.08138911426067352,"326":0.5486450791358948,"327":-0.244686558842659,"328":-0.3809344470500946,"329":-0.2690189480781555,"330":-1.1402385234832764,"331":-0.5037720799446106,"332":0.4326038956642151,"333":0.7343573570251465,"334":0.2909558117389679,"335":0.28777119517326355,"336":-0.49388211965560913,"337":-0.9327043890953064,"338":0.33947885036468506,"339":1.4722356796264648,"340":0.004615535028278828,"341":-1.7784162759780884,"342":-0.537817120552063,"343":0.5178382396697998,"344":-0.031541842967271805,"345":-0.25331181287765503,"346":0.43510812520980835,"347":-0.5160604119300842,"348":0.379006564617157,"349":-1.9443309307098389,"350":0.4966394305229187,"351":-0.7229788303375244,"352":-0.32774168252944946,"353":0.6588658094406128,"354":-0.6736865639686584,"355":-0.4705706536769867,"356":-1.4486645460128784,"357":-1.600158452987671,"358":0.5445197224617004,"359":-0.7036406397819519,"360":-0.9243582487106323,"361":-0.884394109249115,"362":-1.7473424673080444,"363":-0.43971195816993713,"364":0.05584058538079262,"365":-0.12050866335630417,"366":1.927512288093567,"367":0.06637716293334961,"368":0.6496756076812744,"369":1.3947889804840088,"370":1.5731396675109863,"371":1.931700587272644,"372":0.651894211769104,"373":-0.7376261949539185,"374":-0.40657493472099304,"375":1.2161822319030762,"376":-0.7055349349975586,"377":0.17932093143463135,"378":-0.4488326609134674,"379":-0.489891916513443,"380":0.31637030839920044,"381":-1.1724539995193481,"382":0.1181088387966156,"383":-0.25251907110214233,"384":-1.2166792154312134,"385":-0.7382553815841675,"386":0.3583904504776001,"387":0.6214851140975952,"388":-0.5878685712814331,"389":1.7380117177963257,"390":-0.7569464445114136,"391":-0.33581462502479553,"392":-1.0491960048675537,"393":0.39430391788482666,"394":0.34242570400238037,"395":-0.06321448087692261,"396":-0.7330974340438843,"397":-0.8630056381225586,"398":-1.969135046005249,"399":-1.9015398025512695,"400":-0.18675971031188965,"401":2.202087163925171,"402":1.8497401475906372,"403":-0.09674844890832901,"404":-0.44665032625198364,"405":-1.6530742645263672,"406":1.364540934562683,"407":-0.061508845537900925,"408":-0.8215094208717346,"409":0.09399387985467911,"410":0.37303295731544495,"411":-1.6306493282318115,"412":-0.0824756771326065,"413":1.2402818202972412,"414":-0.8317045569419861,"415":-1.2507754564285278,"416":-0.8522892594337463,"417":0.7256670594215393,"418":0.878146231174469,"419":-0.20433025062084198,"420":0.45711028575897217,"421":1.4653832912445068,"422":1.5629690885543823,"423":1.3487074375152588,"424":1.490440011024475,"425":0.579777181148529,"426":-0.34012559056282043,"427":-1.3295471668243408,"428":-1.7073012590408325,"429":-0.1955995112657547,"430":-0.20168642699718475,"431":0.47695574164390564,"432":-1.3063843250274658,"433":-0.45100969076156616,"434":-0.23398585617542267,"435":-0.5707881450653076,"436":-0.24283872544765472,"437":0.42067524790763855,"438":0.03898249939084053,"439":-0.40084967017173767,"440":-0.10895763337612152,"441":0.8504091501235962,"442":-1.1102173328399658,"443":0.566226065158844,"444":1.2490880489349365,"445":-0.8941550254821777,"446":-0.4014119505882263,"447":0.9835501909255981,"448":0.3615427017211914,"449":0.5891976952552795,"450":0.3053763210773468,"451":1.6861933469772339,"452":0.1985645592212677,"453":-0.13710910081863403,"454":0.16230355203151703,"455":-0.9667307734489441,"456":0.08085726201534271,"457":1.773677945137024,"458":0.07353729754686356,"459":-0.611497700214386,"460":0.6570788621902466,"461":-0.5947728753089905,"462":-0.42656072974205017,"463":0.8632174134254456,"464":-2.1257050037384033,"465":1.3101192712783813,"466":1.6445170640945435,"467":0.21131372451782227,"468":-0.056470274925231934,"469":-0.8053581118583679,"470":0.19451363384723663,"471":1.1059585809707642,"472":1.6586992740631104,"473":1.1036185026168823,"474":1.7042258977890015,"475":1.0730422735214233,"476":0.08786573261022568,"477":0.5550873279571533,"478":-1.6861350536346436,"479":-0.4650086462497711,"480":0.04769313707947731,"481":1.721629023551941,"482":-1.4504830837249756,"483":-0.3419279456138611,"484":0.03020744025707245,"485":-2.165649890899658,"486":0.1883837729692459,"487":1.5402467250823975,"488":-0.8659248948097229,"489":-0.48688647150993347,"490":0.9553012251853943,"491":1.2916498184204102,"492":-1.2751497030258179,"493":1.0775220394134521,"494":-0.9071767926216125,"495":0.16746734082698822,"496":0.4211103022098541,"497":-0.1596696525812149,"498":-0.46999019384384155,"499":-0.26006218791007996,"500":0.25697240233421326,"501":0.06321306526660919,"502":0.9474467635154724,"503":2.932481288909912,"504":0.3441072702407837,"505":0.03817497566342354,"506":-1.0653918981552124,"507":-0.835102379322052,"508":-1.8894821405410767,"509":0.5706034898757935,"510":-0.3018328845500946,"511":-0.5693494081497192,"512":0.2586427628993988,"513":-0.5397485494613647,"514":-0.3687613904476166,"515":0.6037054061889648,"516":0.45309028029441833,"517":1.8060084581375122,"518":0.902931809425354,"519":0.4000924527645111}},"forgetHidden":{"rows":20,"columns":20,"weights":{"0":-0.5712211728096008,"1":3.785311460494995,"2":0.7084924578666687,"3":-0.41043785214424133,"4":0.2695790231227875,"5":-1.6910359859466553,"6":0.14230495691299438,"7":-1.5621798038482666,"8":-0.037854310125112534,"9":-0.8696060180664062,"10":-3.1340391635894775,"11":-0.09072713553905487,"12":0.6409736275672913,"13":0.9415928721427917,"14":-2.132129430770874,"15":-0.17249555885791779,"16":-0.013586301356554031,"17":-1.2009280920028687,"18":2.374321937561035,"19":1.6741522550582886,"20":-0.2916371524333954,"21":-0.018442125990986824,"22":-0.8047107458114624,"23":0.34063631296157837,"24":0.21904857456684113,"25":0.5087345242500305,"26":-0.35884150862693787,"27":0.3501293957233429,"28":0.40431681275367737,"29":-0.8407379388809204,"30":-0.24684998393058777,"31":0.7466185688972473,"32":-0.1574327051639557,"33":-0.011870527639985085,"34":-0.2767667770385742,"35":0.49498486518859863,"36":-1.0031280517578125,"37":-0.1234525814652443,"38":0.2976985275745392,"39":0.3720572590827942,"40":-1.028503179550171,"41":-1.6453531980514526,"42":0.2841663360595703,"43":0.6626132130622864,"44":-1.2043423652648926,"45":1.257043480873108,"46":-0.23266029357910156,"47":-0.35532090067863464,"48":0.22923944890499115,"49":-1.0014026165008545,"50":0.08571570366621017,"51":0.8248074054718018,"52":-1.141213059425354,"53":1.0308951139450073,"54":1.597906470298767,"55":-0.5258274078369141,"56":-1.2251667976379395,"57":-1.051429271697998,"58":1.209153175354004,"59":1.3221373558044434,"60":1.582147479057312,"61":-0.11716876924037933,"62":-0.3816024959087372,"63":-1.2651526927947998,"64":0.6102780103683472,"65":-0.0694408193230629,"66":0.001490882015787065,"67":-1.194918155670166,"68":-0.3819238543510437,"69":0.5547379851341248,"70":-0.5990390777587891,"71":-0.5137794613838196,"72":-1.131180763244629,"73":0.4837486147880554,"74":-0.6356457471847534,"75":-2.2130649089813232,"76":-0.9522609114646912,"77":-1.5720069408416748,"78":-0.3409072756767273,"79":-0.24631111323833466,"80":0.4006902575492859,"81":-0.24963165819644928,"82":0.33806923031806946,"83":-0.37304702401161194,"84":0.9469528794288635,"85":0.888433575630188,"86":0.24713923037052155,"87":0.09427455067634583,"88":0.507323682308197,"89":-0.12563808262348175,"90":-0.6004912853240967,"91":0.19353824853897095,"92":-1.1816940307617188,"93":0.6884893178939819,"94":-0.1774735152721405,"95":0.0709809809923172,"96":0.14423894882202148,"97":-0.4932169020175934,"98":0.28134885430336,"99":0.15759460628032684,"100":0.7884677648544312,"101":-0.8655803203582764,"102":-0.04060329496860504,"103":0.9328932762145996,"104":0.33902883529663086,"105":-0.9665531516075134,"106":-0.456016480922699,"107":-1.0990413427352905,"108":0.1844797134399414,"109":1.5785319805145264,"110":0.6231509447097778,"111":0.19776707887649536,"112":-0.1882825791835785,"113":-0.7516394257545471,"114":-0.436909019947052,"115":0.8811827898025513,"116":-0.45171913504600525,"117":-0.36358362436294556,"118":0.23207725584506989,"119":-1.1003397703170776,"120":0.3280584514141083,"121":0.47506365180015564,"122":-0.2822508215904236,"123":-0.5500476360321045,"124":1.4310914278030396,"125":0.8847126960754395,"126":2.2464585304260254,"127":0.7842932939529419,"128":2.278683662414551,"129":0.4139067828655243,"130":-2.5046699047088623,"131":0.4368090331554413,"132":-0.22570767998695374,"133":1.216217279434204,"134":0.3933757543563843,"135":1.2077797651290894,"136":-0.776674211025238,"137":-2.0614545345306396,"138":-0.04270581901073456,"139":1.1046003103256226,"140":0.17707382142543793,"141":-0.6055543422698975,"142":0.3006335496902466,"143":0.44117024540901184,"144":-0.530091404914856,"145":-0.022986004129052162,"146":-0.12045582383871078,"147":-1.3268210887908936,"148":-1.9727500677108765,"149":-0.6598813533782959,"150":0.48628807067871094,"151":-0.3771857023239136,"152":-0.14763328433036804,"153":-0.5947487950325012,"154":-0.07213819772005081,"155":0.035876039415597916,"156":1.2646361589431763,"157":0.8066734075546265,"158":-0.24649344384670258,"159":-0.7063302993774414,"160":-1.6249092817306519,"161":-2.143760919570923,"162":4.508148193359375,"163":2.215317487716675,"164":-2.8825106620788574,"165":0.24706311523914337,"166":0.9692025780677795,"167":-0.7718325853347778,"168":-0.7471320033073425,"169":-2.4110002517700195,"170":0.8991564512252808,"171":1.8801634311676025,"172":0.476030558347702,"173":-0.5636122822761536,"174":2.1269001960754395,"175":1.1811288595199585,"176":-0.03557322174310684,"177":-0.20656782388687134,"178":1.2739070653915405,"179":1.000258445739746,"180":-0.3989972472190857,"181":0.8814083933830261,"182":1.5192123651504517,"183":-1.546364426612854,"184":1.8791931867599487,"185":0.4837862253189087,"186":0.890992283821106,"187":1.5026949644088745,"188":-0.6525235176086426,"189":1.259007453918457,"190":-1.5759317874908447,"191":0.20566409826278687,"192":-0.4112756848335266,"193":1.2556419372558594,"194":0.9201307892799377,"195":0.3002142310142517,"196":-0.6184573173522949,"197":-1.2798033952713013,"198":0.280152827501297,"199":-0.9258586764335632,"200":0.3213443458080292,"201":1.3299757242202759,"202":-0.4811941683292389,"203":-0.499825656414032,"204":0.8279121518135071,"205":0.700728178024292,"206":0.8549860119819641,"207":0.610174298286438,"208":-0.3709360361099243,"209":0.3268851041793823,"210":-0.23242144286632538,"211":-1.993067741394043,"212":-0.384933739900589,"213":1.260303020477295,"214":-0.08067935705184937,"215":-0.34883517026901245,"216":-0.6765360832214355,"217":-0.5752667188644409,"218":1.493449091911316,"219":0.19731537997722626,"220":-1.3050905466079712,"221":-0.021418053656816483,"222":0.9092212319374084,"223":-1.062515139579773,"224":0.5272558331489563,"225":0.07569263875484467,"226":1.1600662469863892,"227":2.9832332134246826,"228":0.7771397233009338,"229":-1.8624361753463745,"230":0.9805935025215149,"231":1.474997878074646,"232":0.05509086325764656,"233":0.9281259179115295,"234":2.21860933303833,"235":0.844327449798584,"236":0.11774273216724396,"237":-0.569411039352417,"238":-1.9421660900115967,"239":-0.19413280487060547,"240":-2.0522477626800537,"241":1.5854257345199585,"242":0.9561705589294434,"243":-1.7529816627502441,"244":2.4260668754577637,"245":1.573870062828064,"246":2.8410418033599854,"247":1.7888071537017822,"248":0.5751259922981262,"249":-0.5774669647216797,"250":-1.8680888414382935,"251":3.2366185188293457,"252":-1.7250516414642334,"253":1.7943624258041382,"254":0.5204556584358215,"255":0.9487290978431702,"256":-1.7272474765777588,"257":-1.327751636505127,"258":1.9298467636108398,"259":2.1983108520507812,"260":-0.3407432734966278,"261":1.7277952432632446,"262":0.9084397554397583,"263":-0.967628538608551,"264":0.6797587275505066,"265":0.6496363282203674,"266":0.545116662979126,"267":0.1291203498840332,"268":0.8756690621376038,"269":0.0039137243293225765,"270":-1.8055537939071655,"271":-0.5519103407859802,"272":0.06287024170160294,"273":2.170675277709961,"274":0.13393700122833252,"275":0.7050196528434753,"276":-0.45006024837493896,"277":-1.430997371673584,"278":0.8716408610343933,"279":0.308614581823349,"280":0.24294215440750122,"281":0.9842205047607422,"282":-0.5107230544090271,"283":-1.3450980186462402,"284":1.8698986768722534,"285":1.597224473953247,"286":-0.08301916718482971,"287":0.6593068838119507,"288":-0.6133372187614441,"289":0.7701409459114075,"290":-1.7882192134857178,"291":-0.7817856073379517,"292":-1.6745738983154297,"293":1.1951969861984253,"294":-0.04031316936016083,"295":-0.13527442514896393,"296":0.4927382469177246,"297":-1.5996750593185425,"298":-0.5802876949310303,"299":-0.9943611025810242,"300":0.4099218249320984,"301":1.0700695514678955,"302":0.4615934491157532,"303":2.4773221015930176,"304":-0.2637909948825836,"305":0.18066564202308655,"306":-0.5285533666610718,"307":1.368446946144104,"308":0.04157459735870361,"309":-3.125811815261841,"310":-1.0622621774673462,"311":-0.012080751359462738,"312":-1.295850396156311,"313":-1.2616612911224365,"314":-0.42776545882225037,"315":0.5681982636451721,"316":-0.3492529094219208,"317":1.5886847972869873,"318":2.2123634815216064,"319":-1.2075196504592896,"320":1.3516910076141357,"321":-0.4052256643772125,"322":-1.0799455642700195,"323":0.6286813020706177,"324":-1.5043160915374756,"325":0.07320261001586914,"326":-0.7961851954460144,"327":-1.952708125114441,"328":1.2115273475646973,"329":-0.45688143372535706,"330":-0.3872266411781311,"331":0.2647165060043335,"332":-0.4050447940826416,"333":-0.5484522581100464,"334":0.3760000169277191,"335":-0.9445900917053223,"336":-0.4333956837654114,"337":-0.020459173247218132,"338":1.3432538509368896,"339":-0.4161474108695984,"340":1.5725566148757935,"341":1.2715681791305542,"342":-0.2899899482727051,"343":0.16041548550128937,"344":-0.3318871855735779,"345":1.4725216627120972,"346":-0.9516148567199707,"347":0.07617583870887756,"348":-0.47671231627464294,"349":-0.15555495023727417,"350":-1.0241129398345947,"351":0.2180999219417572,"352":0.14377683401107788,"353":0.2632235586643219,"354":1.343821406364441,"355":0.6749478578567505,"356":-1.3758835792541504,"357":-0.5830492973327637,"358":1.1551376581192017,"359":0.15219874680042267,"360":-0.47199487686157227,"361":-0.17371554672718048,"362":0.40933704376220703,"363":-0.4500463306903839,"364":-1.735370397567749,"365":-0.908927857875824,"366":0.9707432985305786,"367":-0.71064293384552,"368":-0.5157482624053955,"369":0.11382356286048889,"370":-1.033814549446106,"371":1.0216807126998901,"372":-0.18135769665241241,"373":0.462194561958313,"374":0.40192896127700806,"375":0.23348748683929443,"376":-1.8276371955871582,"377":0.35048210620880127,"378":-0.3492755591869354,"379":0.07229093462228775,"380":-1.3179396390914917,"381":-1.3783963918685913,"382":3.256753444671631,"383":0.37812358140945435,"384":-1.2626478672027588,"385":-1.9973832368850708,"386":1.4052391052246094,"387":-1.2724405527114868,"388":0.9554272890090942,"389":-0.4817394018173218,"390":-2.2641637325286865,"391":2.6622366905212402,"392":0.5521594285964966,"393":-0.33713603019714355,"394":-0.7443418502807617,"395":2.1804633140563965,"396":-0.06579890102148056,"397":-0.27609848976135254,"398":2.226118326187134,"399":0.627226710319519}},"forgetBias":{"rows":20,"columns":1,"weights":{"0":0,"1":0,"2":0,"3":0,"4":0,"5":0,"6":0,"7":0,"8":0,"9":0,"10":0,"11":0,"12":0,"13":0,"14":0,"15":0,"16":0,"17":0,"18":0,"19":0}},"outputMatrix":{"rows":20,"columns":26,"weights":{"0":0.5078641772270203,"1":0.7512003779411316,"2":-0.07949332147836685,"3":-0.4729294180870056,"4":-1.3581337928771973,"5":-1.0930689573287964,"6":-0.23601870238780975,"7":-0.9507167935371399,"8":-1.0661039352416992,"9":-0.01551391463726759,"10":1.314829707145691,"11":1.534325361251831,"12":1.3589938879013062,"13":-1.1818867921829224,"14":0.9842199087142944,"15":-0.20184116065502167,"16":1.5553903579711914,"17":0.4943087100982666,"18":1.363625168800354,"19":-0.9153743982315063,"20":0.16418835520744324,"21":0.7666006088256836,"22":-0.8333635926246643,"23":0.4238119125366211,"24":0.6641855835914612,"25":-0.6817188858985901,"26":-0.4912845194339752,"27":-1.5274232625961304,"28":0.8762054443359375,"29":1.5727659463882446,"30":1.3637241125106812,"31":0.8081694841384888,"32":0.7611876726150513,"33":0.6081668138504028,"34":1.8471996784210205,"35":-0.9625661969184875,"36":-1.0865811109542847,"37":0.20932739973068237,"38":-0.5308797955513,"39":0.8894827961921692,"40":0.3975691497325897,"41":0.06746842712163925,"42":0.6151397228240967,"43":-0.6081860065460205,"44":-0.8090999126434326,"45":1.3723477125167847,"46":-1.02814781665802,"47":0.042117971926927567,"48":0.8340744376182556,"49":-0.09534172713756561,"50":0.2860940098762512,"51":0.3466135859489441,"52":-1.195237636566162,"53":1.692715048789978,"54":-0.5955892205238342,"55":-1.871301293373108,"56":-2.555696964263916,"57":-0.4060918390750885,"58":-1.4465590715408325,"59":-1.1351065635681152,"60":0.6315730810165405,"61":-1.4885205030441284,"62":2.694392442703247,"63":-1.1082932949066162,"64":-0.27747124433517456,"65":-1.8770942687988281,"66":1.4419207572937012,"67":1.432164192199707,"68":-1.0886460542678833,"69":1.8404033184051514,"70":-0.39979591965675354,"71":-1.4562996625900269,"72":0.8560587763786316,"73":-0.05723976343870163,"74":-2.135709285736084,"75":-0.6629551649093628,"76":1.8445552587509155,"77":-1.56166672706604,"78":0.9436927437782288,"79":-2.625150680541992,"80":0.28668510913848877,"81":1.2884690761566162,"82":1.3314191102981567,"83":-0.5625222325325012,"84":-0.5988398194313049,"85":0.42809924483299255,"86":0.6527284383773804,"87":0.13792745769023895,"88":-1.4693334102630615,"89":-0.8089912533760071,"90":-0.4392702877521515,"91":-0.17703403532505035,"92":2.116469383239746,"93":-0.12756702303886414,"94":0.3825303912162781,"95":0.05084201693534851,"96":-0.004769403487443924,"97":1.1061211824417114,"98":-0.6429761648178101,"99":2.341939687728882,"100":-0.10731326788663864,"101":0.29482346773147583,"102":-0.34411534667015076,"103":-0.04327581077814102,"104":0.3840866982936859,"105":-3.4064557552337646,"106":-0.10564432293176651,"107":2.577822685241699,"108":2.144292116165161,"109":-0.6630992293357849,"110":0.2172243893146515,"111":0.33526861667633057,"112":0.07535301893949509,"113":-1.4640884399414062,"114":-2.2529780864715576,"115":0.8441218733787537,"116":-1.8249975442886353,"117":0.979059100151062,"118":1.0163544416427612,"119":-0.1850774735212326,"120":0.1431090086698532,"121":-1.0395281314849854,"122":0.44402045011520386,"123":1.233572006225586,"124":-1.1653943061828613,"125":-0.7101476192474365,"126":1.0518440008163452,"127":-0.1455809324979782,"128":-0.45294812321662903,"129":-0.48513203859329224,"130":-0.09952174872159958,"131":1.3389766216278076,"132":0.16009138524532318,"133":-0.9799335598945618,"134":-1.07667076587677,"135":-0.44384923577308655,"136":-0.5678380131721497,"137":-0.4364781975746155,"138":0.749381422996521,"139":2.134744644165039,"140":1.3964729309082031,"141":-1.6782933473587036,"142":0.18186220526695251,"143":-0.4715997874736786,"144":-1.6986347436904907,"145":0.4377683103084564,"146":-0.7982069849967957,"147":0.5695805549621582,"148":0.11676155775785446,"149":-0.8984085321426392,"150":0.8750367760658264,"151":0.7683247327804565,"152":-0.4166548550128937,"153":0.8940958976745605,"154":0.6681513786315918,"155":0.22829145193099976,"156":2.357243537902832,"157":-0.2896428108215332,"158":-0.7531076669692993,"159":1.4284822940826416,"160":-0.620391845703125,"161":-0.7454850673675537,"162":-0.8568722009658813,"163":-0.5005286931991577,"164":-0.297920823097229,"165":0.6523413062095642,"166":0.7831404209136963,"167":0.0746038481593132,"168":-0.07388424873352051,"169":0.8555182814598083,"170":0.3059409558773041,"171":-1.4855645895004272,"172":0.5746232867240906,"173":0.6694968342781067,"174":-1.4726858139038086,"175":0.7806525826454163,"176":0.39669132232666016,"177":0.40315237641334534,"178":1.2547134160995483,"179":-1.7033333778381348,"180":-1.0396839380264282,"181":-1.3030424118041992,"182":1.7657819986343384,"183":-0.43951326608657837,"184":0.34944772720336914,"185":0.33617207407951355,"186":-0.3179623484611511,"187":-0.3642646372318268,"188":-0.42927026748657227,"189":-0.10645713657140732,"190":0.15091416239738464,"191":1.0412085056304932,"192":0.04452356696128845,"193":1.1607123613357544,"194":0.2066759169101715,"195":-0.23406216502189636,"196":1.6167967319488525,"197":-1.5619405508041382,"198":1.7094320058822632,"199":0.5059352517127991,"200":-0.06097370386123657,"201":0.08507643640041351,"202":0.5053686499595642,"203":0.9293074011802673,"204":0.6032594442367554,"205":-0.11218927800655365,"206":-0.5933873653411865,"207":0.6938442587852478,"208":0.9795367121696472,"209":-1.53651762008667,"210":0.6110256314277649,"211":0.7532573342323303,"212":-1.5899993181228638,"213":0.2293062061071396,"214":-0.9323002099990845,"215":-0.4998302757740021,"216":1.2109198570251465,"217":-1.5174028873443604,"218":1.6362086534500122,"219":1.6583962440490723,"220":1.68895423412323,"221":0.0407886803150177,"222":0.5804041028022766,"223":-1.5243605375289917,"224":0.980248749256134,"225":0.3639152944087982,"226":-0.4682864844799042,"227":0.7802108526229858,"228":-0.4169272184371948,"229":-0.05456915497779846,"230":-0.19129076600074768,"231":-1.237179160118103,"232":-0.0015600473852828145,"233":-0.3715670704841614,"234":-2.742771863937378,"235":0.16721364855766296,"236":0.6991817951202393,"237":0.16838684678077698,"238":-0.19587139785289764,"239":2.643315553665161,"240":1.6698451042175293,"241":-0.2789055109024048,"242":-0.21039561927318573,"243":-0.25640520453453064,"244":0.6653991937637329,"245":-0.5285530090332031,"246":0.5669822692871094,"247":-0.7568829655647278,"248":-1.650098443031311,"249":0.7972584962844849,"250":-1.123468279838562,"251":-1.8277360200881958,"252":0.8296378254890442,"253":-0.2772969603538513,"254":0.3792129158973694,"255":-0.5436960458755493,"256":-0.2528778314590454,"257":1.113450050354004,"258":1.661904215812683,"259":0.9088227152824402,"260":-1.0422890186309814,"261":0.25098681449890137,"262":0.9535620212554932,"263":0.6245307326316833,"264":0.8723304271697998,"265":1.5528924465179443,"266":0.9132415652275085,"267":0.934872031211853,"268":1.7827497720718384,"269":1.0416133403778076,"270":-0.5245336294174194,"271":-1.5848318338394165,"272":-1.7834553718566895,"273":0.18713505566120148,"274":0.9362407326698303,"275":0.21495859324932098,"276":-1.4242035150527954,"277":-0.32166537642478943,"278":-1.2586009502410889,"279":0.4182273745536804,"280":-0.5708417296409607,"281":1.28154456615448,"282":0.3483760952949524,"283":0.23948021233081818,"284":0.17975085973739624,"285":0.8345635533332825,"286":1.404998540878296,"287":-0.3951699733734131,"288":-0.3088335692882538,"289":0.4532972574234009,"290":0.5416672825813293,"291":-0.2685421407222748,"292":0.15347158908843994,"293":0.14640605449676514,"294":0.07157254964113235,"295":0.7390979528427124,"296":-0.47675177454948425,"297":-0.8329176306724548,"298":0.25761353969573975,"299":1.7367496490478516,"300":0.7000557780265808,"301":-1.4464020729064941,"302":-0.4352790415287018,"303":-0.5526972413063049,"304":-0.43572336435317993,"305":1.5284861326217651,"306":-0.32363367080688477,"307":0.5803797841072083,"308":1.1495556831359863,"309":-0.7023537158966064,"310":-1.3853825330734253,"311":0.19800333678722382,"312":1.9618898630142212,"313":0.8842722773551941,"314":-0.23737499117851257,"315":-0.33154618740081787,"316":-0.962818443775177,"317":0.26268425583839417,"318":-0.6176859140396118,"319":0.3800320029258728,"320":1.9999489784240723,"321":2.4440646171569824,"322":0.44352152943611145,"323":-2.6552600860595703,"324":-1.0501068830490112,"325":-0.08920697867870331,"326":1.4145702123641968,"327":1.2412104606628418,"328":-2.3241968154907227,"329":0.5271950960159302,"330":-0.7047581076622009,"331":-0.32730185985565186,"332":-0.5725383758544922,"333":3.6515402793884277,"334":-1.4954203367233276,"335":-0.5709109902381897,"336":0.09675063192844391,"337":-0.1984257996082306,"338":0.6095759272575378,"339":-1.2562768459320068,"340":1.1441030502319336,"341":-0.8852133750915527,"342":1.5131088495254517,"343":0.09963923692703247,"344":1.2927452325820923,"345":1.3763052225112915,"346":-0.5635247230529785,"347":-0.3979994058609009,"348":-1.8334715366363525,"349":0.9463433027267456,"350":-0.5216517448425293,"351":1.0589863061904907,"352":0.5540162324905396,"353":-0.26907095313072205,"354":0.5242865085601807,"355":-1.974392056465149,"356":0.7791984677314758,"357":0.3121781051158905,"358":-1.8241677284240723,"359":-0.3639088571071625,"360":-0.14238221943378448,"361":0.48709672689437866,"362":-0.7907634377479553,"363":1.4178916215896606,"364":-0.8455676436424255,"365":0.7592748403549194,"366":0.5662524104118347,"367":0.18821795284748077,"368":1.3536415100097656,"369":2.275442123413086,"370":0.519601047039032,"371":1.636132836341858,"372":0.831170380115509,"373":1.0574127435684204,"374":-0.7086314558982849,"375":-1.9773838520050049,"376":-2.0158026218414307,"377":-0.4360094964504242,"378":-1.6299227476119995,"379":0.8157232403755188,"380":-1.5178508758544922,"381":-1.1890770196914673,"382":-2.2356557846069336,"383":-0.4045208692550659,"384":-0.7429949045181274,"385":-0.03829722851514816,"386":0.7245686054229736,"387":0.3787904977798462,"388":-0.03698220103979111,"389":1.1969844102859497,"390":-1.5380206108093262,"391":1.8030403852462769,"392":-0.1708192676305771,"393":-1.2357689142227173,"394":-0.9323447346687317,"395":0.2462521344423294,"396":-0.31346595287323,"397":-0.4260683059692383,"398":0.1741136610507965,"399":-0.33517909049987793,"400":1.3715436458587646,"401":-0.011885621584951878,"402":1.3865082263946533,"403":-1.1241865158081055,"404":-0.40768784284591675,"405":1.9826582670211792,"406":-0.1834852546453476,"407":0.6559057235717773,"408":0.4884164035320282,"409":-0.46005913615226746,"410":0.5394105315208435,"411":-0.37031248211860657,"412":-1.0461879968643188,"413":0.28852778673171997,"414":1.8782477378845215,"415":-0.7997463345527649,"416":0.3081814646720886,"417":-1.976351261138916,"418":0.7438335418701172,"419":2.4288337230682373,"420":1.9915308952331543,"421":-0.03140484541654587,"422":0.5879942774772644,"423":0.38795122504234314,"424":-0.27264755964279175,"425":-0.16940365731716156,"426":-1.5239219665527344,"427":1.425615906715393,"428":-0.5388063192367554,"429":0.8929796814918518,"430":-0.02607615478336811,"431":-1.6256011724472046,"432":1.7269444465637207,"433":-0.4852793216705322,"434":-0.22635261714458466,"435":1.6264816522598267,"436":-0.9393333196640015,"437":0.621185839176178,"438":1.9627349376678467,"439":0.8193245530128479,"440":-0.571962833404541,"441":0.6499389410018921,"442":-0.35743963718414307,"443":0.8398982286453247,"444":-0.140922412276268,"445":-0.09264533966779709,"446":-0.8895193934440613,"447":0.5494418144226074,"448":-0.4544914960861206,"449":-0.0813731998205185,"450":-0.0964880958199501,"451":-0.7563669681549072,"452":0.5971212387084961,"453":0.24040398001670837,"454":-0.5587325096130371,"455":0.29309627413749695,"456":-2.5209362506866455,"457":-0.8492773175239563,"458":-0.7195931077003479,"459":0.005409048404544592,"460":-1.322568416595459,"461":-0.17356114089488983,"462":0.3721294105052948,"463":-1.9044194221496582,"464":0.6167961359024048,"465":-0.31231430172920227,"466":-0.5453330278396606,"467":-0.18820656836032867,"468":1.9930166006088257,"469":-0.023472560569643974,"470":-1.4127819538116455,"471":0.7421873211860657,"472":0.5528532862663269,"473":-1.4231010675430298,"474":-0.9878836274147034,"475":-0.5748727917671204,"476":-0.5487818717956543,"477":-1.8213118314743042,"478":-0.4142376482486725,"479":0.6101270318031311,"480":-0.19000940024852753,"481":1.1147634983062744,"482":0.7287242412567139,"483":-1.6971768140792847,"484":0.4693376421928406,"485":1.2003753185272217,"486":-1.846652626991272,"487":1.1990101337432861,"488":0.8200778365135193,"489":-0.6591833829879761,"490":1.4865162372589111,"491":-0.990533709526062,"492":-1.7563750743865967,"493":-1.0884279012680054,"494":-0.5475819110870361,"495":1.060981035232544,"496":0.25155895948410034,"497":-0.4023500680923462,"498":-0.7006545066833496,"499":1.2798526287078857,"500":0.9010414481163025,"501":0.3805963397026062,"502":-0.17424039542675018,"503":1.4552724361419678,"504":1.344494104385376,"505":-2.4331510066986084,"506":0.8074180483818054,"507":0.3594362735748291,"508":0.22861430048942566,"509":0.7343562841415405,"510":-1.0096557140350342,"511":-0.6505287289619446,"512":0.32616275548934937,"513":0.4449538588523865,"514":0.027208758518099785,"515":0.9661904573440552,"516":-0.47981739044189453,"517":2.42470383644104,"518":0.6997766494750977,"519":0.3278203010559082}},"outputHidden":{"rows":20,"columns":20,"weights":{"0":0.21227087080478668,"1":2.1208760738372803,"2":1.1280146837234497,"3":-0.9324425458908081,"4":-0.8547221422195435,"5":-0.3308439552783966,"6":0.4737848937511444,"7":-0.16792745888233185,"8":0.5603361129760742,"9":-1.0378292798995972,"10":-0.6543688774108887,"11":1.4759849309921265,"12":1.3909093141555786,"13":1.289211392402649,"14":1.3324118852615356,"15":-0.10211266577243805,"16":-0.22951801121234894,"17":0.21053501963615417,"18":4.055299758911133,"19":2.3722634315490723,"20":2.167410373687744,"21":-1.2739843130111694,"22":0.924310564994812,"23":0.16659753024578094,"24":0.41097190976142883,"25":0.0642167404294014,"26":-2.6210203170776367,"27":0.08314868807792664,"28":-1.8751393556594849,"29":1.4489312171936035,"30":-0.5590689182281494,"31":1.6541825532913208,"32":-1.027683138847351,"33":-1.7565282583236694,"34":3.1001715660095215,"35":-1.044312596321106,"36":-0.6479915976524353,"37":-0.31084972620010376,"38":-0.7873142957687378,"39":-1.7956961393356323,"40":0.7780473828315735,"41":-0.11300648003816605,"42":-0.33777767419815063,"43":-0.28282275795936584,"44":-1.1865313053131104,"45":-1.3534467220306396,"46":1.3228858709335327,"47":0.25653907656669617,"48":1.2206021547317505,"49":1.8609720468521118,"50":0.435061514377594,"51":-1.3438979387283325,"52":0.6911664605140686,"53":0.35498717427253723,"54":-0.15819332003593445,"55":-0.022430995479226112,"56":1.1448113918304443,"57":-0.48929187655448914,"58":-0.6430160403251648,"59":1.0361204147338867,"60":0.15250331163406372,"61":1.8146854639053345,"62":1.9944987297058105,"63":-1.2518446445465088,"64":-0.3390781581401825,"65":0.4411551058292389,"66":1.8475539684295654,"67":-0.7671722173690796,"68":-0.7118020057678223,"69":1.1035125255584717,"70":-3.2935078144073486,"71":1.6151419878005981,"72":0.16824908554553986,"73":2.554563283920288,"74":2.404987335205078,"75":2.2297098636627197,"76":-3.4553427696228027,"77":-2.131972312927246,"78":1.0800644159317017,"79":0.40336477756500244,"80":-0.3652912676334381,"81":-0.15636005997657776,"82":1.1317611932754517,"83":1.8961551189422607,"84":0.941288411617279,"85":0.19079120457172394,"86":0.09891437739133835,"87":1.2174526453018188,"88":-0.29631564021110535,"89":0.8389195799827576,"90":1.1924774646759033,"91":0.3673838675022125,"92":1.433449625968933,"93":0.14252318441867828,"94":0.7027576565742493,"95":0.41827353835105896,"96":0.8165026307106018,"97":0.3013843894004822,"98":0.7346624732017517,"99":-0.21586312353610992,"100":0.04926222190260887,"101":-0.3910251259803772,"102":-1.7629930973052979,"103":0.32755932211875916,"104":-2.2770543098449707,"105":-1.035536527633667,"106":-1.7814102172851562,"107":-2.6767048835754395,"108":-0.7974292039871216,"109":-0.02146952599287033,"110":0.9388642907142639,"111":-1.5445579290390015,"112":-0.0038664040621370077,"113":-3.5661144256591797,"114":0.7013576626777649,"115":-1.133636236190796,"116":-0.059317879378795624,"117":2.2263472080230713,"118":0.25062039494514465,"119":-1.546705722808838,"120":-0.8625658750534058,"121":1.5939151048660278,"122":0.33274734020233154,"123":-1.9240094423294067,"124":0.4762638211250305,"125":0.3636990487575531,"126":0.8754635453224182,"127":2.015687942504883,"128":0.6389450430870056,"129":0.06789463758468628,"130":-0.8067787885665894,"131":-1.0608280897140503,"132":-0.1538558304309845,"133":0.26356199383735657,"134":0.6299975514411926,"135":0.19919537007808685,"136":0.23773105442523956,"137":-0.6772938370704651,"138":2.033720016479492,"139":2.6888906955718994,"140":1.8972934484481812,"141":-2.2900772094726562,"142":-1.4903604984283447,"143":1.6514625549316406,"144":-2.381848096847534,"145":-1.6789242029190063,"146":-0.1448734700679779,"147":-1.4161953926086426,"148":-1.5444365739822388,"149":0.965055525302887,"150":2.392240047454834,"151":0.9379169940948486,"152":3.8854031562805176,"153":-2.596104383468628,"154":-2.0870134830474854,"155":-1.6745164394378662,"156":-1.1836308240890503,"157":2.6911959648132324,"158":-0.8229869604110718,"159":1.0093802213668823,"160":-0.11914066225290298,"161":0.16594459116458893,"162":-0.1923016458749771,"163":0.20431935787200928,"164":-1.0712847709655762,"165":-4.050577163696289,"166":-1.1841351985931396,"167":-0.6431218385696411,"168":1.5079658031463623,"169":1.161281943321228,"170":1.5793626308441162,"171":-2.251561403274536,"172":1.458904504776001,"173":-1.3238794803619385,"174":-3.3943209648132324,"175":0.9883031249046326,"176":-0.19611230492591858,"177":1.311646580696106,"178":0.9782487154006958,"179":-0.7256899476051331,"180":0.6950217485427856,"181":0.9980709552764893,"182":-0.4872201681137085,"183":0.41401875019073486,"184":1.2259752750396729,"185":0.265369176864624,"186":-0.7227873206138611,"187":0.4474826455116272,"188":0.660021185874939,"189":-0.6285810470581055,"190":0.26380154490470886,"191":-1.8659714460372925,"192":0.33761489391326904,"193":0.2981286942958832,"194":0.08294276148080826,"195":0.28640317916870117,"196":-0.6700730919837952,"197":-1.1844488382339478,"198":-0.42531487345695496,"199":-0.5232524871826172,"200":1.3181604146957397,"201":0.003909656312316656,"202":-0.7423942685127258,"203":-3.6818089485168457,"204":1.275397777557373,"205":-1.1906306743621826,"206":-0.9034482836723328,"207":1.0841907262802124,"208":-0.8401643633842468,"209":1.0901875495910645,"210":-2.4818472862243652,"211":-1.9343369007110596,"212":0.6420493721961975,"213":1.4381024837493896,"214":-0.017749937251210213,"215":-0.9110676646232605,"216":0.8861276507377625,"217":0.08091233670711517,"218":1.7191299200057983,"219":0.2614203691482544,"220":1.2720192670822144,"221":-1.9560127258300781,"222":-0.9150429368019104,"223":0.037054140120744705,"224":0.7472185492515564,"225":-1.840019941329956,"226":-2.9907827377319336,"227":-1.1814897060394287,"228":-3.7249789237976074,"229":-0.8225630521774292,"230":2.4887168407440186,"231":-3.5987801551818848,"232":0.6530284285545349,"233":-1.5756642818450928,"234":-2.264180898666382,"235":-1.9234869480133057,"236":-0.3628808856010437,"237":-1.2702522277832031,"238":0.11627092212438583,"239":-3.6109402179718018,"240":0.19912752509117126,"241":0.025269990786910057,"242":0.617611289024353,"243":-0.5904843211174011,"244":-1.4753869771957397,"245":0.6273296475410461,"246":-0.7672884464263916,"247":-1.161738634109497,"248":-2.13973069190979,"249":-0.7141057252883911,"250":-0.5030640959739685,"251":0.6635675430297852,"252":-0.4044269621372223,"253":-2.8110620975494385,"254":1.4489668607711792,"255":-2.2195749282836914,"256":-0.4495331645011902,"257":0.7637426257133484,"258":0.5400779843330383,"259":0.21559950709342957,"260":0.34546563029289246,"261":1.1231069564819336,"262":3.513688325881958,"263":-2.9127488136291504,"264":1.8665298223495483,"265":2.248547315597534,"266":0.4222085475921631,"267":1.0212708711624146,"268":-0.20648649334907532,"269":2.967571496963501,"270":-0.8513441681861877,"271":-0.12971115112304688,"272":-0.403493732213974,"273":2.702030897140503,"274":1.9985311031341553,"275":-0.6344525814056396,"276":0.8987348675727844,"277":-2.795012950897217,"278":0.7252815365791321,"279":-1.0261213779449463,"280":0.9704636931419373,"281":0.38588809967041016,"282":-0.28964823484420776,"283":1.3113001585006714,"284":-0.1923462152481079,"285":2.2501373291015625,"286":0.1127338781952858,"287":0.596258819103241,"288":0.6169736981391907,"289":-0.1470910906791687,"290":-2.254843235015869,"291":1.9125380516052246,"292":-1.3737767934799194,"293":0.5052147507667542,"294":1.045698642730713,"295":-0.3502829670906067,"296":-1.4193288087844849,"297":-0.5327782034873962,"298":0.3947877883911133,"299":-0.773789644241333,"300":-0.22774352133274078,"301":0.8567737936973572,"302":-0.7607876658439636,"303":1.3486143350601196,"304":-2.029550552368164,"305":-0.22368299961090088,"306":-0.2034982591867447,"307":-1.6040440797805786,"308":3.475358247756958,"309":-1.6975116729736328,"310":0.19981619715690613,"311":1.0091639757156372,"312":-2.1162641048431396,"313":0.12778080999851227,"314":-0.23757433891296387,"315":-1.017551064491272,"316":-1.5688440799713135,"317":1.717617392539978,"318":3.757086753845215,"319":1.1216624975204468,"320":1.4606307744979858,"321":-1.2222673892974854,"322":2.161851406097412,"323":-0.8135882616043091,"324":0.17086002230644226,"325":0.13395145535469055,"326":-1.0987846851348877,"327":-0.5962831974029541,"328":-0.28186070919036865,"329":-0.15984317660331726,"330":0.21846531331539154,"331":2.5591237545013428,"332":-0.1209680363535881,"333":0.0780743956565857,"334":-0.5658958554267883,"335":-2.0943644046783447,"336":0.5354447960853577,"337":0.2669319808483124,"338":-1.5038093328475952,"339":0.28265711665153503,"340":4.615873336791992,"341":-1.412348985671997,"342":-0.8889861106872559,"343":0.6718387007713318,"344":1.6202094554901123,"345":-0.26765191555023193,"346":-1.4898725748062134,"347":0.9859496355056763,"348":-1.2419416904449463,"349":1.4735729694366455,"350":1.0770463943481445,"351":-4.88513708114624,"352":0.6135329604148865,"353":-1.3342889547348022,"354":-0.786004900932312,"355":-1.9746623039245605,"356":1.5113643407821655,"357":0.44055622816085815,"358":-1.4576926231384277,"359":-0.11562492698431015,"360":-0.2252025604248047,"361":-1.0579016208648682,"362":2.2522926330566406,"363":-1.0435117483139038,"364":2.995634078979492,"365":-1.756243348121643,"366":0.9158589243888855,"367":0.2249799370765686,"368":-0.986301600933075,"369":0.3632092773914337,"370":1.3733927011489868,"371":0.735592782497406,"372":1.3933002948760986,"373":0.3888826370239258,"374":0.431052565574646,"375":-0.15482144057750702,"376":1.3947820663452148,"377":0.5177532434463501,"378":-2.7382237911224365,"379":0.20353838801383972,"380":-1.037756323814392,"381":-2.08343505859375,"382":0.20781220495700836,"383":1.5579395294189453,"384":-1.0943020582199097,"385":-1.5992727279663086,"386":0.7702008485794067,"387":-1.874552845954895,"388":3.2169911861419678,"389":-1.3877649307250977,"390":0.04276738688349724,"391":1.2011590003967285,"392":0.5485337376594543,"393":-1.0179147720336914,"394":0.032920952886343,"395":0.4201817810535431,"396":-2.6502158641815186,"397":0.49025970697402954,"398":2.107779026031494,"399":2.013619899749756}},"outputBias":{"rows":20,"columns":1,"weights":{"0":-0.7059248685836792,"1":-0.2436656504869461,"2":1.5754958391189575,"3":-0.49391332268714905,"4":0.43091443181037903,"5":-0.38335341215133667,"6":0.35761117935180664,"7":-1.2051259279251099,"8":-0.8723675012588501,"9":-1.200083613395691,"10":-1.0335148572921753,"11":-0.8141719102859497,"12":0.3223100006580353,"13":-0.7401412129402161,"14":0.2908076345920563,"15":-0.6270454525947571,"16":-0.9803354144096375,"17":-0.5231947898864746,"18":-0.011835191398859024,"19":-1.0410856008529663}},"cellActivationMatrix":{"rows":20,"columns":26,"weights":{"0":-0.06319139897823334,"1":-0.2103167623281479,"2":0.33636152744293213,"3":0.47962886095046997,"4":0.7440851926803589,"5":0.3727819323539734,"6":0.7250120639801025,"7":0.8701127171516418,"8":0.8341754078865051,"9":0.4165706932544708,"10":-1.0110539197921753,"11":-1.130251169204712,"12":-0.8997779488563538,"13":0.22428755462169647,"14":0.7785285711288452,"15":-0.12439929693937302,"16":-0.7348998785018921,"17":-0.322978675365448,"18":-0.07654504477977753,"19":0.17041195929050446,"20":-0.6707130074501038,"21":0.7038472890853882,"22":0.10306644439697266,"23":0.41063937544822693,"24":0.1431756317615509,"25":0.7086758017539978,"26":-0.5658451914787292,"27":0.20367833971977234,"28":0.4692801833152771,"29":-0.0597769059240818,"30":-0.3557352125644684,"31":0.7712007164955139,"32":0.5181185007095337,"33":0.44051238894462585,"34":0.19451670348644257,"35":-0.5080621838569641,"36":0.47734540700912476,"37":0.09514183551073074,"38":-0.09710382670164108,"39":0.31680992245674133,"40":-1.1845420598983765,"41":-0.6275229454040527,"42":-0.3302759528160095,"43":-0.5714239478111267,"44":-0.46616336703300476,"45":-0.32467955350875854,"46":-0.20093946158885956,"47":-1.8020753860473633,"48":1.854030728340149,"49":-0.7960515022277832,"50":-0.6568809151649475,"51":0.9030576944351196,"52":0.5478307604789734,"53":-0.08414828032255173,"54":-0.252786248922348,"55":0.7869628667831421,"56":-0.32324767112731934,"57":-0.09519297629594803,"58":-0.4460788369178772,"59":-0.2377312034368515,"60":0.03535492718219757,"61":-1.0460011959075928,"62":0.49750053882598877,"63":-0.05861430615186691,"64":-0.19645214080810547,"65":1.192152976989746,"66":1.0298829078674316,"67":-1.6406396627426147,"68":-0.016347611322999,"69":0.5473906993865967,"70":-1.1747134923934937,"71":0.9212571978569031,"72":0.2151276171207428,"73":0.05221017450094223,"74":0.8512345552444458,"75":-0.6712373495101929,"76":-1.1368356943130493,"77":-0.22250688076019287,"78":-0.9935965538024902,"79":0.4635011553764343,"80":-0.06556995213031769,"81":-0.8525531888008118,"82":-0.37718668580055237,"83":-0.10892821848392487,"84":0.011351817287504673,"85":0.16014313697814941,"86":0.278443843126297,"87":0.6595559120178223,"88":0.26492077112197876,"89":0.6751397252082825,"90":0.21711815893650055,"91":-0.703769326210022,"92":0.1584901213645935,"93":1.4268672466278076,"94":0.5221868753433228,"95":0.20780648291110992,"96":1.6812043190002441,"97":-0.8207107782363892,"98":-0.11472297459840775,"99":1.0841355323791504,"100":-0.8494409322738647,"101":1.6821107864379883,"102":1.7801074981689453,"103":-0.01794201135635376,"104":0.7786832451820374,"105":-1.408271074295044,"106":-0.42580631375312805,"107":0.703642725944519,"108":1.2690000534057617,"109":-0.9528883695602417,"110":0.29773420095443726,"111":0.2811829149723053,"112":-1.1152328252792358,"113":-1.588180661201477,"114":-1.4735163450241089,"115":0.5280572772026062,"116":-1.0473084449768066,"117":-0.1688312143087387,"118":1.793828010559082,"119":-1.3823821544647217,"120":0.7510983943939209,"121":-0.41929879784584045,"122":-0.42002254724502563,"123":0.4442676603794098,"124":-0.8182430863380432,"125":-1.4083787202835083,"126":0.9850782752037048,"127":-0.34077292680740356,"128":-1.040441632270813,"129":-0.2772558331489563,"130":-1.3397948741912842,"131":-0.4719804525375366,"132":-0.44760313630104065,"133":-0.12790678441524506,"134":0.040749553591012955,"135":-1.063956618309021,"136":0.02847716584801674,"137":-0.7822486162185669,"138":-1.514438509941101,"139":-1.607964277267456,"140":0.16957730054855347,"141":1.447845458984375,"142":1.0690525770187378,"143":-0.21633310616016388,"144":1.480763554573059,"145":-0.10671953111886978,"146":2.2557215690612793,"147":0.5877995491027832,"148":0.3524347245693207,"149":-0.05570390820503235,"150":0.8401485085487366,"151":-1.131445050239563,"152":-0.19845761358737946,"153":-0.9541295766830444,"154":0.082554392516613,"155":-1.0281020402908325,"156":1.3286432027816772,"157":-1.4293010234832764,"158":-0.5227071046829224,"159":0.18804968893527985,"160":0.3666531443595886,"161":-0.43034711480140686,"162":-0.28689849376678467,"163":0.02677920274436474,"164":-1.8626619577407837,"165":0.7501973509788513,"166":-0.3592416048049927,"167":-0.47709494829177856,"168":1.5884195566177368,"169":0.8483131527900696,"170":1.0437897443771362,"171":-1.1831161975860596,"172":-0.24383622407913208,"173":0.17305000126361847,"174":1.3107733726501465,"175":0.6533324718475342,"176":0.44713249802589417,"177":0.8832829594612122,"178":-0.0802837535738945,"179":0.02752961590886116,"180":-1.6032862663269043,"181":0.027834435924887657,"182":0.7796511054039001,"183":-0.8622060418128967,"184":0.30328407883644104,"185":-0.08730016648769379,"186":-0.4627451002597809,"187":-1.0551198720932007,"188":-0.6140052080154419,"189":-0.12265119701623917,"190":0.74781334400177,"191":-0.8395709991455078,"192":0.3815261721611023,"193":1.4050780534744263,"194":-1.8172932863235474,"195":-0.5803903937339783,"196":2.054617404937744,"197":-0.526202380657196,"198":2.423203468322754,"199":0.7234497666358948,"200":-0.8406875133514404,"201":-0.13929909467697144,"202":-0.12078023701906204,"203":-0.7266328930854797,"204":0.23074719309806824,"205":-0.5714976191520691,"206":0.5538957715034485,"207":-0.3580867350101471,"208":0.15771491825580597,"209":0.8282374143600464,"210":-0.11394396424293518,"211":-0.1881696879863739,"212":0.020512808114290237,"213":0.4592064321041107,"214":0.677606463432312,"215":-0.08276809006929398,"216":-1.2177337408065796,"217":0.37464597821235657,"218":0.49293050169944763,"219":-0.2958984971046448,"220":2.1471290588378906,"221":-0.5272740721702576,"222":0.8024909496307373,"223":1.7108620405197144,"224":-0.12196646630764008,"225":-0.03159837797284126,"226":2.4296178817749023,"227":-0.1372920721769333,"228":-0.050724007189273834,"229":-0.19599765539169312,"230":-1.5095793008804321,"231":2.445377826690674,"232":1.5377833843231201,"233":0.42181575298309326,"234":0.09518906474113464,"235":-0.9784072637557983,"236":1.0226519107818604,"237":-0.23890124261379242,"238":0.8703116178512573,"239":1.0526729822158813,"240":0.9389644861221313,"241":1.7292025089263916,"242":0.5135551691055298,"243":-0.9606907963752747,"244":-0.7072687745094299,"245":0.8771970272064209,"246":-0.8215080499649048,"247":0.6699296832084656,"248":-0.6467360854148865,"249":-0.7247083783149719,"250":0.08535848557949066,"251":-1.4870229959487915,"252":-0.14413779973983765,"253":-0.0351446308195591,"254":-1.7407995462417603,"255":-0.8592730164527893,"256":0.4023575782775879,"257":-0.7189474105834961,"258":-0.7340623736381531,"259":1.57213294506073,"260":-0.7186377048492432,"261":0.6196091771125793,"262":0.564301073551178,"263":-0.23183590173721313,"264":-0.04586785286664963,"265":-0.0032503579277545214,"266":0.3297460377216339,"267":0.10564104467630386,"268":-0.3482269048690796,"269":1.1989675760269165,"270":-0.14839808642864227,"271":0.9254399538040161,"272":0.32755205035209656,"273":-0.20702125132083893,"274":-0.9281860589981079,"275":0.1287156045436859,"276":-0.3623661994934082,"277":-0.3178428113460541,"278":1.9837067127227783,"279":-0.24784405529499054,"280":-0.2538638114929199,"281":1.2581909894943237,"282":-1.2650140523910522,"283":1.3030978441238403,"284":0.6607396006584167,"285":0.3622404634952545,"286":0.9599097967147827,"287":0.9215943813323975,"288":-0.2884518802165985,"289":-0.08180150389671326,"290":-1.474899172782898,"291":-0.9640477299690247,"292":-0.9373939037322998,"293":-0.4638974368572235,"294":-0.48155704140663147,"295":0.2505893409252167,"296":0.729387104511261,"297":0.006360592320561409,"298":0.1018938198685646,"299":-0.25200557708740234,"300":1.9425697326660156,"301":0.7301651835441589,"302":0.6148977875709534,"303":1.9511806964874268,"304":0.37351179122924805,"305":-0.32387837767601013,"306":0.8850426077842712,"307":1.1212495565414429,"308":-1.2891589403152466,"309":0.6848434805870056,"310":0.12643232941627502,"311":-0.5652182102203369,"312":-0.07083863019943237,"313":0.3015368580818176,"314":-0.9891712069511414,"315":0.3538985252380371,"316":-0.9185388684272766,"317":-1.0680326223373413,"318":-0.3139042854309082,"319":-1.2255151271820068,"320":-0.9711251258850098,"321":2.888254404067993,"322":0.5353220701217651,"323":-1.0757567882537842,"324":1.214781641960144,"325":-0.11955220252275467,"326":-0.54384446144104,"327":0.24527958035469055,"328":-0.6574642062187195,"329":0.32625117897987366,"330":0.6004465222358704,"331":0.23535782098770142,"332":1.4514511823654175,"333":1.2275575399398804,"334":0.6527144908905029,"335":1.071534276008606,"336":0.46148309111595154,"337":-0.4019458591938019,"338":1.5659116506576538,"339":-0.8611884713172913,"340":0.962896466255188,"341":0.3667566478252411,"342":-0.27616599202156067,"343":-0.41170671582221985,"344":0.005066954530775547,"345":0.3084290623664856,"346":-0.27931129932403564,"347":0.13802042603492737,"348":0.2035897970199585,"349":0.19997717440128326,"350":1.5640755891799927,"351":0.5800913572311401,"352":0.3916514217853546,"353":-1.0123896598815918,"354":0.8891103863716125,"355":-0.19692271947860718,"356":0.4757610559463501,"357":0.3346005976200104,"358":-0.22275905311107635,"359":0.30063626170158386,"360":0.680573046207428,"361":-0.33160585165023804,"362":-2.006873607635498,"363":0.9756407737731934,"364":0.728103756904602,"365":-0.4483969211578369,"366":-0.8708005547523499,"367":0.30097776651382446,"368":-0.2772267758846283,"369":-2.535118579864502,"370":-0.7317482829093933,"371":-0.8499073386192322,"372":-1.700937271118164,"373":0.34971883893013,"374":0.5738006234169006,"375":1.699560523033142,